
\data\
ngram 1=19319
ngram 2=38634
ngram 3=10315

\1-grams:
-2.613908	!	-2.802774
-3.233069	!"	-2.184691
-4.603426	!"--	-0.8450981
-4.240248	!'	-1.190332
-5.717369	!'"	-0.09143031
-5.240248	!)	-0.1567049
-5.717369	!)"	-0.09143031
-5.717369	!*	-0.09143031
-3.56815	!--	-1.851259
-5.717369	!--"	-0.09143031
-5.416339	!--'	-0.2725315
-2.547695	"	-2.868938
-3.88486	"'	-1.537819
-4.438616	"--	-1
-5.717369	"...	-0.09143031
-4.939218	";	-0.5608894
-5.416339	$	-0.2725315
-5.416339	&	-0.2725315
-2.288587	'	-3.127914
-5.240248	',	-0.1567049
-5.717369	',--	-0.09143031
-5.240248	'-	-0.1567049
-5.416339	'--	-0.2725315
-5.717369	';	-0.09143031
-3.39515	(	-2.023252
-3.825275	)	-1.596597
-3.924978	),	-1.498311
-5.115309	)--	-0.5438738
-4.541278	).	-0.9030901
-4.603426	).--	-0.8450981
-5.717369	):	-0.09143031
-4.571241	);	-0.8750613
-5.717369	);--	-0.09143031
-4.374947	*	-1.060698
-1.445226	,	-3.971137
-3.237362	,"	-2.180413
-5.018399	,"--	-0.4028369
-4.212219	,'	-1.217484
-5.416339	,'--	-0.2725315
-5.717369	,)	-0.09143031
-5.240248	,*	-0.1567049
-3.782871	,--	-1.638489
-4.763127	,--"	-0.69897
-5.416339	,--'	-0.2725315
-2.310488	-	-3.106021
-2.687985	--	-2.72876
-3.739646	--"	-1.681241
-4.763127	--'	-0.69897
-5.717369	--'"	-0.09143031
-5.115309	--(	-0.5438738
-5.717369	---"	-0.09143031
-5.717369	---,	-0.09143031
-1.880919	.	-3.535484
-3.02806	."	-2.389166
-5.717369	."*	-0.09143031
-5.717369	."--	-0.09143031
-4.161067	.'	-1.267172
-5.240248	.'"	-0.1567049
-4.374947	.)	-1.060698
-4.513249	.*	-0.929419
-5.717369	.*--	-0.09143031
-4.872271	.,	-0.8257958
-4.064157	.--	-1.361728
-5.717369	.--"	-0.09143031
-4.675977	...	-0.7781512
-5.416339	....	-0.2725315
-5.416339	.]	-0.2725315
-4.416339	000	-1.021189
-5.416339	1	-0.2725315
-5.115309	10	-0.5438738
-5.717369	100	-0.09143031
-5.717369	101	-0.09143031
-5.717369	102	-0.09143031
-5.717369	103	-0.09143031
-5.717369	104	-0.09143031
-5.717369	105	-0.09143031
-5.717369	106	-0.09143031
-5.717369	107	-0.09143031
-5.717369	108	-0.09143031
-5.717369	109	-0.09143031
-5.717369	11	-0.09143031
-5.717369	110	-0.09143031
-5.717369	111	-0.09143031
-5.717369	112	-0.09143031
-5.717369	113	-0.09143031
-5.717369	114	-0.09143031
-5.717369	115	-0.09143031
-5.717369	116	-0.09143031
-5.717369	117	-0.09143031
-5.717369	118	-0.09143031
-5.717369	119	-0.09143031
-5.717369	12	-0.09143031
-5.717369	120	-0.09143031
-5.717369	121	-0.09143031
-5.717369	122	-0.09143031
-5.717369	123	-0.09143031
-5.717369	124	-0.09143031
-5.717369	125	-0.09143031
-5.717369	126	-0.09143031
-5.717369	127	-0.09143031
-5.717369	128	-0.09143031
-5.717369	129	-0.09143031
-5.240248	13	-0.1567049
-5.717369	130	-0.09143031
-5.717369	131	-0.09143031
-5.717369	132	-0.09143031
-5.717369	133	-0.09143031
-5.717369	134	-0.09143031
-5.717369	135	-0.09143031
-5.717369	14	-0.09143031
-5.717369	144	-0.09143031
-5.717369	1492	-0.09143031
-5.717369	15	-0.09143031
-5.717369	150	-0.09143031
-5.416339	15th	-0.2725315
-5.717369	16	-0.09143031
-5.717369	1652	-0.09143031
-5.717369	1668	-0.09143031
-5.416339	1671	-0.2725315
-5.717369	1690	-0.09143031
-5.717369	1695	-0.09143031
-5.717369	16th	-0.09143031
-5.717369	17	-0.09143031
-5.717369	1726	-0.09143031
-5.717369	1729	-0.09143031
-5.717369	1750	-0.09143031
-5.717369	1772	-0.09143031
-5.416339	1775	-0.2725315
-5.717369	1776	-0.09143031
-5.416339	1778	-0.2725315
-5.717369	1779	-0.09143031
-5.717369	1788	-0.09143031
-5.717369	1791	-0.09143031
-5.717369	1793	-0.09143031
-5.717369	18	-0.09143031
-5.416339	180	-0.2725315
-5.416339	1807	-0.2725315
-5.717369	1819	-0.09143031
-5.416339	1820	-0.2725315
-5.717369	1821	-0.09143031
-5.416339	1825	-0.2725315
-5.416339	1828	-0.2725315
-5.717369	1833	-0.09143031
-5.416339	1836	-0.2725315
-5.240248	1839	-0.1567049
-5.717369	1840	-0.09143031
-5.717369	1842	-0.09143031
-5.717369	1846	-0.09143031
-5.717369	1850	-0.09143031
-5.240248	1851	-0.1567049
-5.717369	19	-0.09143031
-5.717369	1ST	-0.09143031
-5.717369	1st	-0.09143031
-5.416339	2	-0.2725315
-5.240248	20	-0.1567049
-5.717369	2000	-0.09143031
-5.717369	200th	-0.09143031
-5.717369	21	-0.09143031
-5.717369	21st	-0.09143031
-5.717369	22	-0.09143031
-5.717369	23	-0.09143031
-5.717369	24	-0.09143031
-5.416339	25	-0.2725315
-5.717369	26	-0.09143031
-5.717369	27	-0.09143031
-5.115309	275th	-0.5438738
-5.717369	28	-0.09143031
-5.717369	29	-0.09143031
-5.717369	2ND	-0.09143031
-5.115309	3	-0.5438738
-5.416339	30	-0.2725315
-5.717369	31	-0.09143031
-5.717369	31st	-0.09143031
-5.717369	32	-0.09143031
-5.717369	33	-0.09143031
-5.717369	34	-0.09143031
-5.717369	35	-0.09143031
-5.717369	36	-0.09143031
-5.717369	37	-0.09143031
-5.717369	38	-0.09143031
-5.717369	39	-0.09143031
-5.717369	3D	-0.09143031
-5.717369	3d	-0.09143031
-5.240248	4	-0.1567049
-5.416339	40	-0.2725315
-5.416339	400	-0.2725315
-5.717369	41	-0.09143031
-5.717369	42	-0.09143031
-5.717369	43	-0.09143031
-5.717369	44	-0.09143031
-5.717369	440	-0.09143031
-5.416339	45	-0.2725315
-5.717369	46	-0.09143031
-5.717369	47	-0.09143031
-5.717369	48	-0.09143031
-5.717369	49	-0.09143031
-5.717369	4TH	-0.09143031
-5.416339	5	-0.2725315
-5.717369	50	-0.09143031
-5.416339	500	-0.2725315
-5.717369	51	-0.09143031
-5.717369	52	-0.09143031
-5.717369	53	-0.09143031
-5.717369	54	-0.09143031
-5.717369	55	-0.09143031
-5.240248	550	-0.1567049
-5.717369	56	-0.09143031
-5.717369	57	-0.09143031
-5.717369	58	-0.09143031
-5.717369	59	-0.09143031
-5.717369	5TH	-0.09143031
-5.717369	6	-0.09143031
-5.416339	60	-0.2725315
-5.717369	61	-0.09143031
-5.717369	62	-0.09143031
-5.717369	63	-0.09143031
-5.717369	64	-0.09143031
-5.717369	65	-0.09143031
-5.717369	66	-0.09143031
-5.717369	67	-0.09143031
-5.717369	68	-0.09143031
-5.717369	69	-0.09143031
-5.416339	7	-0.2725315
-5.717369	70	-0.09143031
-5.717369	71	-0.09143031
-5.416339	72	-0.2725315
-5.717369	73	-0.09143031
-5.717369	74	-0.09143031
-5.717369	75	-0.09143031
-5.717369	76	-0.09143031
-5.717369	77	-0.09143031
-5.717369	78	-0.09143031
-5.717369	79	-0.09143031
-5.717369	8	-0.09143031
-5.717369	80	-0.09143031
-5.240248	800	-0.1567049
-5.717369	81	-0.09143031
-5.717369	82	-0.09143031
-5.717369	83	-0.09143031
-5.717369	84	-0.09143031
-5.717369	85	-0.09143031
-5.717369	86	-0.09143031
-5.717369	87	-0.09143031
-5.717369	88	-0.09143031
-5.717369	89	-0.09143031
-5.717369	890	-0.09143031
-5.717369	9	-0.09143031
-5.717369	90	-0.09143031
-5.717369	91	-0.09143031
-5.717369	92	-0.09143031
-5.717369	93	-0.09143031
-5.717369	94	-0.09143031
-5.717369	95	-0.09143031
-5.717369	96	-0.09143031
-5.717369	97	-0.09143031
-5.717369	98	-0.09143031
-5.717369	99	-0.09143031
-3.507854	:	-1.911158
-5.717369	:"-	-0.09143031
-4.254971	:--	-1.176091
-5.717369	:--"	-0.09143031
-5.416339	:--'	-0.2725315
-2.107561	;	-3.308884
-4.939218	;"	-0.5608894
-5.717369	;"--	-0.09143031
-5.717369	;"--(	-0.09143031
-5.115309	;'	-0.5438738
-5.717369	;*	-0.09143031
-3.911189	;--	-1.511883
-5.717369	;--"	-0.09143031
-5.717369	;--'	-0.09143031
-0.30103	</s>
-99	<s>	-1.16097
-2.91323	?	-2.503791
-3.315969	?"	-2.102091
-4.939218	?"--	-0.5608894
-4.212219	?'	-1.217484
-5.717369	?'--'	-0.09143031
-3.848138	?--	-1.574031
-5.717369	?--"	-0.09143031
-5.717369	?--'	-0.09143031
-3.494653	A	-1.924279
-5.717369	ABOUT	-0.09143031
-5.416339	ACCOUNT	-0.2725315
-5.717369	ADDITIONAL	-0.09143031
-5.416339	ADVANCING	-0.2725315
-5.717369	ADVENTURES	-0.09143031
-5.717369	AFFGHANISTAN	-0.09143031
-5.717369	AFRICA	-0.09143031
-5.717369	AFTER	-0.09143031
-5.717369	AGAINST	-0.09143031
-4.717369	AHAB	-0.7403627
-5.717369	ALFRED	-0.09143031
-5.717369	ALGERINE	-0.09143031
-5.717369	ALIVE	-0.09143031
-4.763127	ALL	-0.69897
-5.416339	ALONE	-0.2725315
-5.416339	AM	-0.2725315
-5.717369	AMERICA	-0.09143031
-5.717369	AMONG	-0.09143031
-5.717369	ANCHORS	-0.09143031
-4.149168	AND	-1.278754
-5.717369	ANGLO	-0.09143031
-5.717369	ANIMAL	-0.09143031
-5.717369	ANNALS	-0.09143031
-5.717369	ANNUS	-0.09143031
-5.717369	ANOTHER	-0.09143031
-5.717369	ANY	-0.09143031
-5.717369	APOLOGY	-0.09143031
-5.717369	APPLICATION	-0.09143031
-5.717369	APPROACHING	-0.09143031
-5.717369	ARCTIC	-0.09143031
-5.717369	ARE	-0.09143031
-5.717369	AROUND	-0.09143031
-5.717369	AS	-0.09143031
-5.717369	ASCENDING	-0.09143031
-5.717369	ASIA	-0.09143031
-5.115309	ASIDE	-0.5438738
-5.717369	ASPECT	-0.09143031
-5.115309	AT	-0.5438738
-5.717369	ATTACK	-0.09143031
-5.717369	ATTACKED	-0.09143031
-5.717369	ATTITUDES	-0.09143031
-5.717369	AUGUST	-0.09143031
-5.717369	AUTHOR	-0.09143031
-5.416339	AZORE	-0.2725315
-5.717369	Abashed	-0.09143031
-5.717369	Abednego	-0.09143031
-5.717369	Abel	-0.09143031
-5.717369	Abjectus	-0.09143031
-5.717369	Aboard	-0.09143031
-5.717369	Abominable	-0.09143031
-5.018399	About	-0.4028369
-5.416339	Above	-0.2725315
-5.240248	Abraham	-0.1567049
-5.717369	Academy	-0.09143031
-5.717369	Accessory	-0.09143031
-4.939218	According	-0.5608894
-5.416339	Accordingly	-0.2725315
-5.717369	Accursed	-0.09143031
-5.717369	Achilles	-0.09143031
-5.717369	Actium	-0.09143031
-5.717369	Acushnet	-0.09143031
-4.939218	Adam	-0.5608894
-5.416339	Adieu	-0.2725315
-5.717369	Adios	-0.09143031
-5.416339	Admiral	-0.2725315
-5.717369	Admirals	-0.09143031
-5.717369	Advance	-0.09143031
-5.717369	Advancement	-0.09143031
-5.717369	Adventures	-0.09143031
-5.717369	Adverse	-0.09143031
-5.717369	Advocate	-0.09143031
-5.717369	Affected	-0.09143031
-5.717369	Affidavit	-0.09143031
-5.717369	Affrighted	-0.09143031
-5.416339	Afric	-0.2725315
-4.872271	Africa	-0.8257958
-5.240248	African	-0.1567049
-5.717369	Africans	-0.09143031
-5.717369	Aft	-0.09143031
-4.48692	After	-0.9542425
-5.717369	Afterwards	-0.09143031
-4.763127	Again	-0.69897
-5.717369	Against	-0.09143031
-5.717369	Agassiz	-0.09143031
-5.717369	Ages	-0.09143031
-4.462097	Ah	-0.9777237
-3.017531	Ahab	-2.399674
-5.717369	Ahabs	-0.09143031
-5.416339	Ahasuerus	-0.2725315
-5.717369	Ahaz	-0.09143031
-5.416339	Ahoy	-0.2725315
-5.240248	Ain	-0.1567049
-5.416339	Air	-0.2725315
-5.717369	Akin	-0.09143031
-4.939218	Alabama	-0.5608894
-5.717369	Aladdin	-0.09143031
-5.717369	Alarmed	-0.09143031
-5.416339	Alas	-0.2725315
-5.240248	Albatross	-0.1567049
-5.717369	Albemarle	-0.09143031
-5.717369	Albert	-0.09143031
-5.717369	Albicore	-0.09143031
-5.240248	Albino	-0.1567049
-5.717369	Aldrovandi	-0.09143031
-5.717369	Aldrovandus	-0.09143031
-5.240248	Alexander	-0.1567049
-5.717369	Alexanders	-0.09143031
-5.717369	Alfred	-0.09143031
-5.717369	Algerine	-0.09143031
-5.717369	Algiers	-0.09143031
-5.717369	Alike	-0.09143031
-5.717369	Alive	-0.09143031
-3.977006	All	-1.447158
-5.717369	Alleghanian	-0.09143031
-5.717369	Alleghanies	-0.09143031
-5.717369	Alley	-0.09143031
-5.717369	Almanack	-0.09143031
-5.717369	Almighty	-0.09143031
-4.763127	Almost	-0.69897
-4.763127	Aloft	-0.69897
-5.416339	Alone	-0.2725315
-5.240248	Alps	-0.1567049
-5.115309	Already	-0.5438738
-5.240248	Also	-0.1567049
-5.240248	Am	-0.1567049
-5.717369	Ambergriese	-0.09143031
-5.717369	Ambergris	-0.09143031
-5.416339	Amelia	-0.2725315
-4.675977	America	-0.7781512
-4.18589	American	-1.243038
-4.939218	Americans	-0.5608894
-5.717369	Americas	-0.09143031
-5.717369	Amittai	-0.09143031
-4.814279	Among	-0.6532125
-5.240248	Amsterdam	-0.1567049
-4.571241	An	-0.8750613
-5.717369	Anacharsis	-0.09143031
-5.717369	Anak	-0.09143031
-5.717369	Anatomist	-0.09143031
-3.150343	And	-2.267172
-4.872271	Andes	-0.8257958
-5.717369	Andrew	-0.09143031
-5.115309	Andromeda	-0.5438738
-5.717369	Angel	-0.09143031
-5.717369	Angelo	-0.09143031
-5.717369	Angels	-0.09143031
-5.717369	Animated	-0.09143031
-5.717369	Annawon	-0.09143031
-5.416339	Anne	-0.2725315
-5.717369	Anno	-0.09143031
-5.717369	Anomalous	-0.09143031
-4.814279	Another	-0.6532125
-5.416339	Answer	-0.2725315
-5.018399	Antarctic	-0.4028369
-5.240248	Antilles	-0.1567049
-5.717369	Antiochus	-0.09143031
-5.717369	Antony	-0.09143031
-5.717369	Antwerp	-0.09143031
-5.717369	Anvil	-0.09143031
-4.939218	Any	-0.5608894
-5.717369	Anyhow	-0.09143031
-5.416339	Anything	-0.2725315
-5.717369	Anyway	-0.09143031
-5.717369	Apollo	-0.09143031
-5.717369	Apoplexy	-0.09143031
-5.717369	Applied	-0.09143031
-5.717369	Apply	-0.09143031
-5.240248	April	-0.1567049
-5.416339	Aquarius	-0.2725315
-5.416339	Arch	-0.2725315
-5.717369	Archbishop	-0.09143031
-5.717369	Arched	-0.09143031
-5.416339	Archer	-0.2725315
-5.717369	Archipelagoes	-0.09143031
-5.018399	Archy	-0.4028369
-5.115309	Arctic	-0.5438738
-4.675977	Are	-0.7781512
-5.717369	Arethusa	-0.09143031
-5.717369	Argo	-0.09143031
-5.240248	Aries	-0.1567049
-5.717369	Arion	-0.09143031
-5.416339	Aristotle	-0.2725315
-5.416339	Ark	-0.2725315
-5.717369	Arkansas	-0.09143031
-5.717369	Arkite	-0.09143031
-5.717369	Arm	-0.09143031
-5.717369	Armada	-0.09143031
-5.717369	Arnold	-0.09143031
-5.717369	Aroostook	-0.09143031
-5.717369	Around	-0.09143031
-5.717369	Arrayed	-0.09143031
-5.416339	Arrived	-0.2725315
-5.115309	Arsacidean	-0.5438738
-5.240248	Arsacides	-0.1567049
-5.416339	Art	-0.2725315
-5.717369	Artedi	-0.09143031
-5.717369	Arter	-0.09143031
-5.717369	Articles	-0.09143031
-3.638188	As	-1.781755
-5.717369	Asa	-0.09143031
-5.717369	Ashantee	-0.09143031
-5.717369	Ashore	-0.09143031
-5.115309	Asia	-0.5438738
-5.240248	Asiatic	-0.1567049
-5.416339	Asiatics	-0.2725315
-5.717369	Aside	-0.09143031
-5.717369	Asphaltites	-0.09143031
-5.717369	Assaulted	-0.09143031
-5.717369	Assume	-0.09143031
-5.717369	Assuming	-0.09143031
-5.717369	Assuredly	-0.09143031
-5.717369	Assyrian	-0.09143031
-5.717369	Astern	-0.09143031
-5.717369	Astir	-0.09143031
-5.717369	Astronomy	-0.09143031
-3.79309	At	-1.628389
-4.438616	Atlantic	-1
-5.717369	Atlantics	-0.09143031
-5.717369	Attached	-0.09143031
-5.717369	Attend	-0.09143031
-5.115309	August	-0.5438738
-5.115309	Aunt	-0.5438738
-5.416339	Australia	-0.2725315
-5.717369	Australian	-0.09143031
-5.717369	Austrian	-0.09143031
-5.717369	Author	-0.09143031
-5.717369	Authors	-0.09143031
-5.717369	Auto	-0.09143031
-5.717369	Availing	-0.09143031
-4.603426	Avast	-0.8450981
-5.717369	Avatar	-0.09143031
-5.717369	Aware	-0.09143031
-4.814279	Away	-0.6532125
-5.717369	Awful	-0.09143031
-5.240248	Ay	-0.1567049
-3.77785	Aye	-1.643453
-5.240248	Azores	-0.1567049
-5.018399	BACK	-0.4028369
-5.717369	BACKED	-0.09143031
-5.717369	BACON	-0.09143031
-5.717369	BALEINE	-0.09143031
-5.717369	BALLENA	-0.09143031
-5.717369	BANKS	-0.09143031
-5.717369	BARON	-0.09143031
-5.416339	BATTLE	-0.2725315
-5.717369	BE	-0.09143031
-5.717369	BEALE	-0.09143031
-5.416339	BEFORE	-0.2725315
-5.717369	BEING	-0.09143031
-5.717369	BELFAST	-0.09143031
-5.717369	BELOW	-0.09143031
-5.240248	BENCH	-0.1567049
-5.416339	BENNETT	-0.2725315
-5.717369	BERMUDAS	-0.09143031
-5.717369	BETWEEN	-0.09143031
-5.717369	BEWARE	-0.09143031
-5.717369	BIOGRAPHY	-0.09143031
-5.717369	BIT	-0.09143031
-5.416339	BLACK	-0.2725315
-5.717369	BLACKSMITH	-0.09143031
-5.717369	BLACKSTONE	-0.09143031
-5.717369	BLOOD	-0.09143031
-5.717369	BLOODY	-0.09143031
-5.717369	BLOWS	-0.09143031
-5.717369	BOARD	-0.09143031
-5.240248	BOAT	-0.1567049
-5.717369	BOATS	-0.09143031
-4.462097	BOOK	-0.9777237
-5.717369	BOOKS	-0.09143031
-5.717369	BOSOM	-0.09143031
-5.416339	BOTTOM	-0.2725315
-5.717369	BOUTON	-0.09143031
-5.717369	BRACE	-0.09143031
-5.717369	BRACTON	-0.09143031
-5.717369	BREACH	-0.09143031
-5.717369	BREAKERS	-0.09143031
-5.717369	BREAKWATER	-0.09143031
-5.717369	BRIT	-0.09143031
-5.717369	BROKE	-0.09143031
-5.717369	BROTHER	-0.09143031
-5.717369	BROWN	-0.09143031
-5.240248	BROWNE	-0.1567049
-5.416339	BURKE	-0.2725315
-5.717369	BURST	-0.09143031
-5.717369	BUSILY	-0.09143031
-4.541278	BY	-0.9030901
-5.416339	Babel	-0.2725315
-5.717369	Babylon	-0.09143031
-5.717369	Babylonian	-0.09143031
-4.872271	Bachelor	-0.8257958
-4.814279	Back	-0.6532125
-5.717369	Backs	-0.09143031
-5.416339	Bad	-0.2725315
-5.416339	Baden	-0.2725315
-5.717369	Bag	-0.09143031
-5.717369	Balaene	-0.09143031
-5.717369	Baliene	-0.09143031
-5.717369	Baling	-0.09143031
-5.717369	Bally	-0.09143031
-5.240248	Baltic	-0.1567049
-5.717369	Baltimore	-0.09143031
-5.717369	Bamboo	-0.09143031
-5.717369	Bang	-0.09143031
-5.115309	Banks	-0.5438738
-5.416339	Barbary	-0.2725315
-5.717369	Bare	-0.09143031
-5.717369	Bargain	-0.09143031
-5.240248	Baron	-0.1567049
-5.416339	Barrens	-0.2725315
-5.717369	Bartholomew	-0.09143031
-5.717369	Base	-0.09143031
-5.416339	Bashaw	-0.2725315
-5.240248	Bashee	-0.1567049
-5.717369	Basilosaurus	-0.09143031
-5.717369	Bastille	-0.09143031
-5.717369	Battering	-0.09143031
-5.717369	Battery	-0.09143031
-5.115309	Bay	-0.5438738
-5.717369	Bays	-0.09143031
-4.571241	Be	-0.8750613
-5.416339	Beach	-0.2725315
-4.939218	Beale	-0.5608894
-5.717369	Beams	-0.09143031
-5.018399	Bear	-0.4028369
-5.717369	Bears	-0.09143031
-5.717369	Beat	-0.09143031
-4.438616	Because	-1
-5.717369	Becket	-0.09143031
-4.462097	Bedford	-0.9777237
-5.416339	Beelzebub	-0.2725315
-5.717369	Befooled	-0.09143031
-5.115309	Before	-0.5438738
-5.240248	Begone	-0.1567049
-5.416339	Behold	-0.2725315
-5.416339	Behring	-0.2725315
-5.018399	Being	-0.4028369
-5.717369	Belated	-0.09143031
-5.717369	Belial	-0.09143031
-5.416339	Believe	-0.2725315
-5.717369	Belisarius	-0.09143031
-5.416339	Bell	-0.2725315
-5.717369	Bellies	-0.09143031
-5.717369	Beloved	-0.09143031
-5.416339	Below	-0.2725315
-5.018399	Belshazzar	-0.4028369
-5.717369	Belubed	-0.09143031
-5.717369	Bench	-0.09143031
-5.717369	Bendigoes	-0.09143031
-5.416339	Beneath	-0.2725315
-5.416339	Bengal	-0.2725315
-5.416339	Benjamin	-0.2725315
-5.416339	Bennett	-0.2725315
-5.717369	Bentham	-0.09143031
-5.717369	Berkshire	-0.09143031
-5.717369	Berlin	-0.09143031
-5.416339	Bernard	-0.2725315
-4.240248	Besides	-1.190332
-5.717369	Bess	-0.09143031
-5.115309	Best	-0.5438738
-5.717369	Bestow	-0.09143031
-5.240248	Bethink	-0.1567049
-5.240248	Better	-0.1567049
-5.717369	Betty	-0.09143031
-5.416339	Between	-0.2725315
-5.018399	Beware	-0.4028369
-5.717369	Beyond	-0.09143031
-4.717369	Bible	-0.7403627
-5.416339	Bibles	-0.2725315
-5.717369	Bibliographical	-0.09143031
-3.836556	Bildad	-1.585461
-5.717369	Biographical	-0.09143031
-5.717369	Birmah	-0.09143031
-5.018399	Bishop	-0.4028369
-5.717369	Bite	-0.09143031
-4.872271	Black	-0.8257958
-5.717369	Blacksmith	-0.09143031
-5.416339	Blackstone	-0.2725315
-5.717369	Blanc	-0.09143031
-5.717369	Blanche	-0.09143031
-5.717369	Blanco	-0.09143031
-5.717369	Blang	-0.09143031
-5.416339	Blanket	-0.2725315
-5.018399	Blast	-0.4028369
-5.717369	Bless	-0.09143031
-5.717369	Blind	-0.09143031
-5.717369	Blinding	-0.09143031
-5.717369	Blocksburg	-0.09143031
-5.416339	Blood	-0.2725315
-5.717369	Bloody	-0.09143031
-5.416339	Blue	-0.2725315
-5.240248	Boat	-0.1567049
-5.717369	Boats	-0.09143031
-5.717369	Bobbing	-0.09143031
-5.416339	Bolivia	-0.2725315
-5.717369	Bombay	-0.09143031
-5.717369	Bonapartes	-0.09143031
-5.717369	Bone	-0.09143031
-5.717369	Bones	-0.09143031
-5.717369	Bonneterre	-0.09143031
-5.717369	Booble	-0.09143031
-5.115309	Book	-0.5438738
-5.240248	Boomer	-0.1567049
-5.717369	Boone	-0.09143031
-5.717369	Bordeaux	-0.09143031
-5.717369	Borean	-0.09143031
-5.240248	Born	-0.1567049
-5.717369	Borneo	-0.09143031
-5.717369	Bosom	-0.09143031
-5.416339	Boston	-0.2725315
-4.939218	Both	-0.5608894
-5.416339	Bottle	-0.2725315
-5.717369	Bottom	-0.09143031
-5.717369	Bourbons	-0.09143031
-5.717369	Bout	-0.09143031
-5.018399	Bouton	-0.4028369
-5.240248	Bowditch	-0.1567049
-5.717369	Bower	-0.09143031
-4.541278	Boy	-0.9030901
-5.717369	Boys	-0.09143031
-5.717369	Brace	-0.09143031
-5.416339	Brahma	-0.2725315
-5.717369	Brahmins	-0.09143031
-5.717369	Brandreth	-0.09143031
-5.416339	Brazil	-0.2725315
-5.717369	Breakfast	-0.09143031
-5.416339	Bremen	-0.2725315
-5.717369	Bress	-0.09143031
-5.416339	Bridge	-0.2725315
-5.717369	Brighggians	-0.09143031
-5.717369	Bright	-0.09143031
-5.717369	Bring	-0.09143031
-5.717369	Brisson	-0.09143031
-5.717369	Brit	-0.09143031
-5.717369	Britain	-0.09143031
-5.240248	British	-0.1567049
-5.717369	Britons	-0.09143031
-5.416339	Broad	-0.2725315
-5.416339	Broadway	-0.2725315
-5.416339	Broke	-0.2725315
-5.717369	Brother	-0.09143031
-5.240248	Browne	-0.1567049
-5.717369	Brute	-0.09143031
-5.717369	Buckets	-0.09143031
-5.717369	Bud	-0.09143031
-5.115309	Buffalo	-0.5438738
-4.814279	Bulkington	-0.6532125
-5.240248	Bull	-0.1567049
-5.717369	Bulwarks	-0.09143031
-4.603426	Bunger	-0.8450981
-5.717369	Bungle	-0.09143031
-5.717369	Bunyan	-0.09143031
-5.717369	Buoy	-0.09143031
-5.717369	Buoyed	-0.09143031
-5.717369	Burke	-0.09143031
-5.717369	Burkes	-0.09143031
-5.717369	Burst	-0.09143031
-5.416339	Burton	-0.2725315
-5.115309	Burtons	-0.5438738
-5.717369	Business	-0.09143031
-2.86918	But	-2.547775
-5.717369	Butchers	-0.09143031
-5.717369	Butler	-0.09143031
-4.001366	By	-1.423246
-5.717369	Byward	-0.09143031
-5.717369	C	-0.09143031
-5.416339	CABIN	-0.2725315
-5.717369	CABINET	-0.09143031
-5.717369	CANNY	-0.09143031
-5.717369	CAP	-0.09143031
-5.416339	CAPTAIN	-0.2725315
-5.717369	CAPTAINS	-0.09143031
-5.717369	CAPTORS	-0.09143031
-5.115309	CARPENTER	-0.5438738
-5.717369	CATCHES	-0.09143031
-5.717369	CAULKING	-0.09143031
-5.717369	CEASE	-0.09143031
-5.416339	CETI	-0.2725315
-5.717369	CETUS	-0.09143031
-5.717369	CHACE	-0.09143031
-3.541278	CHAPTER	-1.877947
-5.717369	CHAPTERS	-0.09143031
-5.717369	CHARLES	-0.09143031
-5.717369	CHEERLY	-0.09143031
-5.717369	CHEEVER	-0.09143031
-5.717369	CHIEF	-0.09143031
-5.717369	CHINA	-0.09143031
-5.717369	CHOP	-0.09143031
-5.717369	CHORUS	-0.09143031
-5.717369	CHRONICLER	-0.09143031
-5.717369	CIRCUMNAVIGATION	-0.09143031
-5.717369	CLEAN	-0.09143031
-5.717369	CLOSES	-0.09143031
-5.717369	CLUSTERS	-0.09143031
-5.416339	COFFIN	-0.2725315
-5.717369	COILS	-0.09143031
-5.717369	COLEMAN	-0.09143031
-5.416339	COLL	-0.2725315
-5.717369	COLNETT	-0.09143031
-5.717369	COMES	-0.09143031
-5.717369	COMMERCIAL	-0.09143031
-5.717369	COMMODORE	-0.09143031
-5.416339	COMSTOCK	-0.2725315
-5.717369	CONTESTED	-0.09143031
-5.717369	CONTINUES	-0.09143031
-5.717369	CONVERSATIONS	-0.09143031
-5.717369	COOK	-0.09143031
-5.717369	COOPER	-0.09143031
-5.717369	COWLEY	-0.09143031
-5.717369	COWPER	-0.09143031
-5.717369	CREWS	-0.09143031
-5.240248	CROW	-0.1567049
-5.416339	CRUISE	-0.2725315
-5.717369	CRUISING	-0.09143031
-5.717369	CRUIZE	-0.09143031
-5.717369	CURRENTS	-0.09143031
-5.717369	CUVIER	-0.09143031
-4.939218	Cabaco	-0.5608894
-5.240248	Cabin	-0.1567049
-5.240248	Cachalot	-0.1567049
-5.115309	Cadiz	-0.5438738
-5.416339	Caesar	-0.2725315
-5.717369	Caesarian	-0.09143031
-5.416339	Cain	-0.2725315
-5.717369	Calais	-0.09143031
-5.717369	Californian	-0.09143031
-5.240248	Call	-0.1567049
-5.717369	Callao	-0.09143031
-5.717369	Cambyses	-0.09143031
-5.717369	Camel	-0.09143031
-5.717369	Campagna	-0.09143031
-4.513249	Can	-0.929419
-5.416339	Canaan	-0.2725315
-5.416339	Canada	-0.2725315
-5.717369	Canadian	-0.09143031
-5.240248	Canal	-0.1567049
-5.416339	Canaller	-0.2725315
-4.814279	Canallers	-0.6532125
-5.717369	Canals	-0.09143031
-5.717369	Canaris	-0.09143031
-5.717369	Cancer	-0.09143031
-5.717369	Candles	-0.09143031
-5.717369	Cannibal	-0.09143031
-5.416339	Cannibals	-0.2725315
-5.717369	Cannon	-0.09143031
-5.416339	Canst	-0.2725315
-5.717369	Cant	-0.09143031
-5.717369	Canterbury	-0.09143031
-5.717369	Cap	-0.09143031
-4.137586	Cape	-1.290035
-5.717369	Capes	-0.09143031
-5.717369	Capricornus	-0.09143031
-3.384931	Captain	-2.033424
-5.115309	Captains	-0.5438738
-5.115309	Capting	-0.5438738
-5.717369	Caramba	-0.09143031
-5.416339	Careful	-0.2725315
-5.717369	Carefully	-0.09143031
-5.717369	Carey	-0.09143031
-4.939218	Carpenter	-0.5608894
-5.717369	Carpet	-0.09143031
-5.717369	Carrol	-0.09143031
-5.717369	Carson	-0.09143031
-5.717369	Carthage	-0.09143031
-5.717369	Caryatid	-0.09143031
-5.240248	Case	-0.1567049
-5.717369	Cash	-0.09143031
-5.717369	Cassock	-0.09143031
-5.717369	Castaway	-0.09143031
-5.416339	Castle	-0.2725315
-5.717369	Categut	-0.09143031
-5.416339	Cathedral	-0.2725315
-5.416339	Catholic	-0.2725315
-5.717369	Cato	-0.09143031
-5.717369	Catskill	-0.09143031
-5.717369	Cattegat	-0.09143031
-5.717369	Caught	-0.09143031
-5.717369	Cave	-0.09143031
-5.717369	Caw	-0.09143031
-5.717369	Cellini	-0.09143031
-5.717369	Central	-0.09143031
-5.416339	Certain	-0.2725315
-5.416339	Certainly	-0.2725315
-5.717369	Cervantes	-0.09143031
-5.717369	Cetacea	-0.09143031
-5.240248	Cetacean	-0.1567049
-4.939218	Cetology	-0.5608894
-5.416339	Cetus	-0.2725315
-5.717369	Ceylon	-0.09143031
-5.240248	Chace	-0.1567049
-5.416339	Chaldee	-0.2725315
-5.717369	Champagne	-0.09143031
-5.416339	Champollion	-0.2725315
-5.717369	Channel	-0.09143031
-5.115309	Chapel	-0.5438738
-5.717369	Charing	-0.09143031
-4.872271	Charity	-0.8257958
-5.416339	Charlemagne	-0.2725315
-5.240248	Charley	-0.1567049
-5.717369	Chart	-0.09143031
-5.717369	Chartering	-0.09143031
-5.240248	Chase	-0.1567049
-5.717369	Cheever	-0.09143031
-5.717369	Cherries	-0.09143031
-5.717369	Chestnut	-0.09143031
-4.939218	Chief	-0.5608894
-5.717369	Childe	-0.09143031
-5.416339	Chili	-0.2725315
-5.416339	Chilian	-0.2725315
-4.814279	China	-0.6532125
-5.018399	Chinese	-0.4028369
-5.717369	Cholo	-0.09143031
-5.416339	Chowder	-0.2725315
-5.717369	Christ	-0.09143031
-5.115309	Christendom	-0.5438738
-4.462097	Christian	-0.9777237
-5.416339	Christianity	-0.2725315
-4.872271	Christians	-0.8257958
-5.018399	Christmas	-0.4028369
-5.018399	Church	-0.4028369
-5.240248	Cinque	-0.1567049
-5.717369	Circassian	-0.09143031
-5.717369	Circumambulate	-0.09143031
-5.717369	Cistern	-0.09143031
-5.717369	Civitas	-0.09143031
-5.416339	Clam	-0.2725315
-5.717369	Clap	-0.09143031
-5.717369	Claus	-0.09143031
-5.717369	Clay	-0.09143031
-5.416339	Clear	-0.2725315
-5.717369	Clearing	-0.09143031
-5.416339	Cleopatra	-0.2725315
-5.717369	Cleveland	-0.09143031
-5.115309	Clifford	-0.5438738
-5.717369	Clinging	-0.09143031
-5.717369	Clootz	-0.09143031
-5.416339	Close	-0.2725315
-5.717369	Closing	-0.09143031
-5.717369	Cloud	-0.09143031
-5.717369	Cluny	-0.09143031
-5.416339	Coast	-0.2725315
-5.717369	Cock	-0.09143031
-5.717369	Cockatoo	-0.09143031
-5.018399	Cod	-0.4028369
-5.717369	Cods	-0.09143031
-5.717369	Coenties	-0.09143031
-4.571241	Coffin	-0.8750613
-5.416339	Coffins	-0.2725315
-5.717369	Cognac	-0.09143031
-5.717369	Coke	-0.09143031
-5.717369	Cold	-0.09143031
-5.717369	Coleman	-0.09143031
-5.416339	Coleridge	-0.2725315
-5.416339	College	-0.2725315
-5.240248	Colnett	-0.1567049
-5.018399	Cologne	-0.4028369
-5.717369	Colonies	-0.09143031
-5.717369	Colossus	-0.09143031
-5.416339	Columbus	-0.2725315
-4.254971	Come	-1.176091
-5.115309	Coming	-0.5438738
-5.717369	Commanded	-0.09143031
-5.717369	Commanders	-0.09143031
-5.717369	Commend	-0.09143031
-4.763127	Commodore	-0.69897
-5.717369	Commodores	-0.09143031
-5.717369	Common	-0.09143031
-5.717369	Commonly	-0.09143031
-5.717369	Commons	-0.09143031
-5.717369	Commonwealth	-0.09143031
-5.717369	Companies	-0.09143031
-5.717369	Comparing	-0.09143031
-5.416339	Concerning	-0.2725315
-5.416339	Congo	-0.2725315
-5.717369	Congregation	-0.09143031
-5.240248	Congregational	-0.1567049
-5.717369	Conjuror	-0.09143031
-5.717369	Connecticut	-0.09143031
-5.717369	Consequently	-0.09143031
-4.814279	Consider	-0.6532125
-5.240248	Considering	-0.1567049
-5.416339	Constable	-0.2725315
-5.717369	Constantine	-0.09143031
-5.240248	Constantinople	-0.1567049
-5.717369	Consumptive	-0.09143031
-5.717369	Continents	-0.09143031
-5.416339	Contrasted	-0.2725315
-5.717369	Conversation	-0.09143031
-5.717369	Convulsively	-0.09143031
-4.603426	Cook	-0.8450981
-5.717369	Cooke	-0.09143031
-5.717369	Cooks	-0.09143031
-5.717369	Cooper	-0.09143031
-5.416339	Coopman	-0.2725315
-5.717369	Copenhagen	-0.09143031
-5.717369	Coppered	-0.09143031
-5.717369	Corinthians	-0.09143031
-5.717369	Corkscrew	-0.09143031
-5.717369	Corlaer	-0.09143031
-5.717369	Corlears	-0.09143031
-5.717369	Coronation	-0.09143031
-5.717369	Corresponding	-0.09143031
-5.416339	Corrupt	-0.2725315
-5.717369	Cough	-0.09143031
-5.717369	Could	-0.09143031
-5.717369	Count	-0.09143031
-5.717369	Counterpane	-0.09143031
-5.717369	County	-0.09143031
-5.717369	Court	-0.09143031
-5.717369	Cousin	-0.09143031
-5.717369	Cowper	-0.09143031
-5.717369	Crab	-0.09143031
-5.416339	Crack	-0.2725315
-5.717369	Crammer	-0.09143031
-5.717369	Crappo	-0.09143031
-5.717369	Crappoes	-0.09143031
-5.717369	Crazed	-0.09143031
-5.717369	Creagh	-0.09143031
-5.717369	Created	-0.09143031
-5.416339	Cretan	-0.2725315
-5.717369	Crete	-0.09143031
-5.717369	Crew	-0.09143031
-5.717369	Crish	-0.09143031
-5.717369	Crockett	-0.09143031
-5.240248	Cross	-0.1567049
-5.416339	Crossed	-0.2725315
-5.416339	Crossing	-0.2725315
-5.717369	Crotch	-0.09143031
-5.717369	Crowding	-0.09143031
-5.717369	Crown	-0.09143031
-5.240248	Crozetts	-0.1567049
-5.717369	Cruelty	-0.09143031
-5.717369	Cruising	-0.09143031
-5.717369	Cruppered	-0.09143031
-5.717369	Crusaders	-0.09143031
-5.717369	Crushed	-0.09143031
-5.717369	Crying	-0.09143031
-5.416339	Cuba	-0.2725315
-5.717369	Curious	-0.09143031
-5.416339	Curse	-0.2725315
-5.717369	Cursed	-0.09143031
-5.717369	Curses	-0.09143031
-5.717369	Cussed	-0.09143031
-5.717369	Customs	-0.09143031
-5.240248	Cut	-0.1567049
-5.717369	Cutter	-0.09143031
-5.416339	Cutting	-0.2725315
-4.717369	Cuvier	-0.7403627
-5.717369	Cyclades	-0.09143031
-5.018399	Czar	-0.4028369
-4.355641	D	-1.079181
-5.240248	DAGGOO	-0.1567049
-5.717369	DAM	-0.09143031
-5.717369	DANCE	-0.09143031
-5.416339	DANCING	-0.2725315
-5.717369	DANIEL	-0.09143031
-5.416339	DANISH	-0.2725315
-5.717369	DARKENS	-0.09143031
-5.717369	DARWIN	-0.09143031
-5.717369	DAVENANT	-0.09143031
-5.717369	DEAD	-0.09143031
-5.717369	DEATH	-0.09143031
-5.717369	DEBELL	-0.09143031
-5.240248	DECK	-0.1567049
-5.717369	DEL	-0.09143031
-5.717369	DESTROYED	-0.09143031
-5.717369	DEVIL	-0.09143031
-5.240248	DICTIONARY	-0.1567049
-5.416339	DID	-0.2725315
-5.717369	DIGNITY	-0.09143031
-5.717369	DISCOVERS	-0.09143031
-5.717369	DISSECTION	-0.09143031
-4.814279	DO	-0.6532125
-5.717369	DON	-0.09143031
-5.416339	DOWN	-0.2725315
-5.717369	DRYDEN	-0.09143031
-4.872271	DUODECIMO	-0.8257958
-5.717369	DUODECIMOES	-0.09143031
-5.717369	DURING	-0.09143031
-5.416339	DUTCH	-0.2725315
-5.416339	Daboll	-0.2725315
-4.18589	Daggoo	-1.243038
-5.717369	Dagon	-0.09143031
-5.717369	Dame	-0.09143031
-4.872271	Damn	-0.8257958
-5.717369	Damocles	-0.09143031
-5.717369	Dampier	-0.09143031
-5.115309	Dan	-0.5438738
-5.717369	Dance	-0.09143031
-5.416339	Danes	-0.2725315
-5.717369	Daniel	-0.09143031
-5.416339	Danish	-0.2725315
-5.717369	Dante	-0.09143031
-5.717369	Dantean	-0.09143031
-5.717369	Dar	-0.09143031
-5.416339	Dardanelles	-0.2725315
-5.717369	Darien	-0.09143031
-5.717369	Darkness	-0.09143031
-5.717369	Darmonodes	-0.09143031
-5.717369	Dart	-0.09143031
-5.416339	Dash	-0.2725315
-5.717369	Dashing	-0.09143031
-5.717369	Dauphine	-0.09143031
-5.416339	Davis	-0.2725315
-5.416339	Davy	-0.2725315
-5.115309	Day	-0.5438738
-5.416339	Days	-0.2725315
-5.115309	De	-0.5438738
-5.115309	Deacon	-0.5438738
-5.717369	Dead	-0.09143031
-4.462097	Death	-0.9777237
-5.717369	Decanter	-0.09143031
-5.717369	Decapitation	-0.09143031
-5.115309	December	-0.5438738
-5.115309	Deck	-0.5438738
-5.717369	Deep	-0.09143031
-5.416339	Deer	-0.2725315
-5.240248	Deity	-0.1567049
-5.717369	Del	-0.09143031
-5.717369	Deliberately	-0.09143031
-4.814279	Delight	-0.6532125
-5.717369	Delightful	-0.09143031
-5.717369	Deliverer	-0.09143031
-5.717369	Delta	-0.09143031
-5.717369	Den	-0.09143031
-5.717369	Denderah	-0.09143031
-5.717369	Depend	-0.09143031
-4.638188	Derick	-0.8129134
-5.717369	Dericks	-0.09143031
-5.717369	Descartian	-0.09143031
-5.717369	Descending	-0.09143031
-5.717369	Desecrated	-0.09143031
-5.416339	Desmarest	-0.2725315
-5.717369	Desolation	-0.09143031
-5.717369	Despairing	-0.09143031
-5.717369	Despatch	-0.09143031
-5.717369	Detached	-0.09143031
-5.115309	Deuteronomy	-0.5438738
-5.115309	Devil	-0.5438738
-5.717369	Devils	-0.09143031
-5.717369	Dey	-0.09143031
-5.717369	Diaz	-0.09143031
-3.79309	Dick	-1.628389
-4.717369	Did	-0.7403627
-4.675977	Didn	-0.7781512
-5.717369	Didst	-0.09143031
-5.717369	Diminish	-0.09143031
-5.416339	Ding	-0.2725315
-5.240248	Dinner	-0.1567049
-5.717369	Dinting	-0.09143031
-5.717369	Discovery	-0.09143031
-5.717369	Disdain	-0.09143031
-5.717369	Dish	-0.09143031
-5.717369	Dismal	-0.09143031
-5.717369	Dissect	-0.09143031
-5.240248	Dives	-0.1567049
-5.416339	Divine	-0.2725315
-5.717369	Diving	-0.09143031
-4.212219	Do	-1.217484
-5.717369	Doctor	-0.09143031
-5.717369	Dodge	-0.09143031
-4.939218	Does	-0.5608894
-5.717369	Doesn	-0.09143031
-5.416339	Dog	-0.2725315
-5.717369	Dolly	-0.09143031
-5.717369	Dome	-0.09143031
-5.416339	Dominic	-0.2725315
-4.173301	Don	-1.255272
-5.240248	Dons	-0.1567049
-5.717369	Doom	-0.09143031
-5.717369	Dorchester	-0.09143031
-4.814279	Dost	-0.6532125
-5.240248	Doubloon	-0.1567049
-5.717369	Doubtless	-0.09143031
-5.717369	Doubts	-0.09143031
-4.513249	Dough	-0.929419
-5.717369	Dover	-0.09143031
-4.638188	Down	-0.8129134
-4.939218	Dr	-0.5608894
-5.717369	Dragged	-0.09143031
-5.717369	Dragon	-0.09143031
-5.717369	Drat	-0.09143031
-5.717369	Drawing	-0.09143031
-5.717369	Drawn	-0.09143031
-5.717369	Draws	-0.09143031
-5.416339	Drink	-0.2725315
-5.717369	Drinking	-0.09143031
-5.240248	Drive	-0.1567049
-5.717369	Drop	-0.09143031
-5.416339	Dropping	-0.2725315
-5.717369	Dry	-0.09143031
-5.416339	Duck	-0.2725315
-5.717369	Dugongs	-0.09143031
-4.814279	Duke	-0.6532125
-5.717369	Dunder	-0.09143031
-5.717369	Dunfermline	-0.09143031
-5.717369	Dunkirk	-0.09143031
-5.717369	Duodecimo	-0.09143031
-5.717369	Duodecimoes	-0.09143031
-5.717369	Durand	-0.09143031
-5.717369	Durer	-0.09143031
-4.814279	During	-0.6532125
-5.717369	Dusk	-0.09143031
-5.717369	Dut	-0.09143031
-4.337158	Dutch	-1.09691
-5.717369	Dutchman	-0.09143031
-5.717369	Dying	-0.09143031
-5.018399	E	-0.4028369
-5.717369	ECKERMANN	-0.09143031
-5.717369	ECUADOR	-0.09143031
-5.717369	EDGE	-0.09143031
-5.416339	EDMUND	-0.2725315
-5.717369	ELECTION	-0.09143031
-5.717369	ELIZA	-0.09143031
-5.717369	ELIZABETH	-0.09143031
-5.717369	ELLERY	-0.09143031
-5.717369	EMBONPOINT	-0.09143031
-5.240248	ENGLISH	-0.1567049
-5.717369	ENSUING	-0.09143031
-5.717369	ENTER	-0.09143031
-5.717369	ERECTION	-0.09143031
-5.717369	ERROMANGOAN	-0.09143031
-5.717369	ESCAPED	-0.09143031
-5.717369	ESSEX	-0.09143031
-5.717369	ETCHINGS	-0.09143031
-5.717369	ETYMOLOGY	-0.09143031
-5.240248	EX	-0.1567049
-5.717369	EXCHANGE	-0.09143031
-5.717369	EXCHANGING	-0.09143031
-5.717369	EXTENDING	-0.09143031
-5.416339	EXTRACTS	-0.2725315
-5.717369	EYES	-0.09143031
-5.717369	EZEKIEL	-0.09143031
-5.717369	Each	-0.09143031
-5.717369	Eagle	-0.09143031
-5.717369	Earl	-0.09143031
-5.717369	Earls	-0.09143031
-5.717369	Earthsman	-0.09143031
-4.717369	East	-0.7403627
-5.416339	Eastern	-0.2725315
-5.717369	Easy	-0.09143031
-5.717369	Ebony	-0.09143031
-5.717369	Ecclesiastes	-0.09143031
-5.717369	Eckerman	-0.09143031
-5.416339	Eddystone	-0.2725315
-5.717369	Edgewise	-0.09143031
-5.717369	Edmund	-0.09143031
-5.717369	Edward	-0.09143031
-5.717369	Ego	-0.09143031
-5.240248	Egypt	-0.1567049
-4.872271	Egyptian	-0.8257958
-5.115309	Egyptians	-0.5438738
-5.717369	Eh	-0.09143031
-5.717369	Ehrenbreitstein	-0.09143031
-5.240248	Eight	-0.1567049
-5.717369	Either	-0.09143031
-5.717369	Elbe	-0.09143031
-5.717369	Electors	-0.09143031
-5.416339	Elephant	-0.2725315
-5.416339	Elephanta	-0.2725315
-5.717369	Elephants	-0.09143031
-4.541278	Elijah	-0.9030901
-5.416339	Ellenborough	-0.2725315
-5.416339	Elsewhere	-0.2725315
-5.717369	Emblazonings	-0.09143031
-5.717369	Emboldened	-0.09143031
-5.240248	Emir	-0.1567049
-5.115309	Emperor	-0.5438738
-5.018399	Emperors	-0.4028369
-5.416339	Empire	-0.2725315
-5.717369	End	-0.09143031
-5.717369	Enderbies	-0.09143031
-4.872271	Enderby	-0.8257958
-5.717369	Enderbys	-0.09143031
-4.416339	England	-1.021189
-5.717369	Englander	-0.09143031
-4.054611	English	-1.371068
-5.018399	Englishman	-0.4028369
-5.416339	Englishmen	-0.2725315
-5.416339	Enough	-0.2725315
-5.717369	Enter	-0.09143031
-5.416339	Entering	-0.2725315
-5.717369	Entreaties	-0.09143031
-5.717369	Enveloped	-0.09143031
-5.717369	Ephesian	-0.09143031
-5.717369	Epilogue	-0.09143031
-5.717369	Epitome	-0.09143031
-5.717369	Equality	-0.09143031
-4.872271	Equator	-0.8257958
-5.416339	Equatorial	-0.2725315
-4.603426	Ere	-0.8450981
-5.115309	Erie	-0.5438738
-5.717369	Erromanggoans	-0.09143031
-5.717369	Erroneous	-0.09143031
-5.115309	Erskine	-0.5438738
-5.717369	Esau	-0.09143031
-5.717369	Espied	-0.09143031
-5.717369	Espying	-0.09143031
-5.416339	Esquimaux	-0.2725315
-5.416339	Essex	-0.2725315
-5.717369	Et	-0.09143031
-5.717369	Eternities	-0.09143031
-5.240248	Eternity	-0.1567049
-5.416339	Ethiopian	-0.2725315
-5.717369	Euclid	-0.09143031
-5.717369	Euclidean	-0.09143031
-5.018399	Euroclydon	-0.4028369
-5.717369	Europa	-0.09143031
-5.018399	Europe	-0.4028369
-5.416339	European	-0.2725315
-5.717369	Evangelist	-0.09143031
-5.240248	Evangelists	-0.1567049
-4.717369	Even	-0.7403627
-5.240248	Ever	-0.1567049
-4.717369	Every	-0.7403627
-5.717369	Evil	-0.09143031
-5.717369	Ex	-0.09143031
-5.717369	Excellent	-0.09143031
-5.717369	Excepting	-0.09143031
-5.717369	Exception	-0.09143031
-5.717369	Excuse	-0.09143031
-5.717369	Expedition	-0.09143031
-5.717369	Expeditions	-0.09143031
-5.717369	Explain	-0.09143031
-5.717369	Exploring	-0.09143031
-5.717369	Extending	-0.09143031
-5.717369	Ezekiel	-0.09143031
-5.416339	F	-0.2725315
-5.717369	FAERIE	-0.09143031
-5.717369	FAIR	-0.09143031
-5.717369	FALCONER	-0.09143031
-5.416339	FAMOUS	-0.2725315
-5.717369	FEET	-0.09143031
-5.717369	FEGEE	-0.09143031
-5.717369	FIFE	-0.09143031
-5.717369	FIGURED	-0.09143031
-5.717369	FILING	-0.09143031
-5.416339	FIN	-0.2725315
-5.717369	FINALLY	-0.09143031
-5.717369	FIRMLY	-0.09143031
-5.717369	FIRST	-0.09143031
-5.240248	FISH	-0.1567049
-5.717369	FISHERMAN	-0.09143031
-5.416339	FISHERY	-0.2725315
-5.717369	FIXED	-0.09143031
-5.717369	FLAME	-0.09143031
-5.717369	FLAMES	-0.09143031
-5.717369	FLASHES	-0.09143031
-5.717369	FLASK	-0.09143031
-5.717369	FLOOD	-0.09143031
-4.763127	FOLIO	-0.69897
-5.717369	FOLIOS	-0.09143031
-5.416339	FOLLOW	-0.2725315
-5.717369	FOLLOWING	-0.09143031
-4.939218	FOR	-0.5608894
-5.717369	FORECASTLE	-0.09143031
-5.717369	FORESAIL	-0.09143031
-5.717369	FORGE	-0.09143031
-5.416339	FORWARD	-0.2725315
-5.717369	FREDERICK	-0.09143031
-5.018399	FRENCH	-0.4028369
-5.717369	FROCK	-0.09143031
-4.717369	FROM	-0.7403627
-5.717369	FULLLER	-0.09143031
-5.717369	Fa	-0.09143031
-5.717369	Face	-0.09143031
-5.717369	Fain	-0.09143031
-5.717369	Faintly	-0.09143031
-5.416339	Fair	-0.2725315
-5.115309	Faith	-0.5438738
-5.717369	Falsehood	-0.09143031
-5.717369	Fanning	-0.09143031
-5.115309	Far	-0.5438738
-5.416339	Farewell	-0.2725315
-5.717369	Fashioned	-0.09143031
-4.513249	Fast	-0.929419
-5.717369	Fasting	-0.09143031
-5.416339	Fat	-0.2725315
-5.717369	Fata	-0.09143031
-5.018399	Fate	-0.4028369
-4.939218	Fates	-0.5608894
-4.675977	Father	-0.7781512
-5.717369	Fe	-0.09143031
-5.717369	Fear	-0.09143031
-5.717369	Fearing	-0.09143031
-5.717369	February	-0.09143031
-4.286005	Fedallah	-1.146128
-5.717369	Feegee	-0.09143031
-5.717369	Feegeeans	-0.09143031
-5.717369	Feegees	-0.09143031
-5.717369	Feel	-0.09143031
-5.717369	Feet	-0.09143031
-5.240248	Fejee	-0.1567049
-5.717369	Fellow	-0.09143031
-5.717369	Ferdinando	-0.09143031
-5.717369	Fernandes	-0.09143031
-5.416339	Fetch	-0.2725315
-5.416339	Few	-0.2725315
-5.717369	Fields	-0.09143031
-5.717369	Fiercely	-0.09143031
-5.717369	Fiery	-0.09143031
-5.717369	Fife	-0.09143031
-5.416339	Fifth	-0.2725315
-5.717369	Figuera	-0.09143031
-5.717369	Fill	-0.09143031
-4.872271	Fin	-0.8257958
-5.240248	Finally	-0.1567049
-5.717369	Find	-0.09143031
-5.717369	Finding	-0.09143031
-5.416339	Fine	-0.2725315
-5.717369	Fired	-0.09143031
-4.337158	First	-1.09691
-4.198855	Fish	-1.230449
-5.717369	Fisheries	-0.09143031
-4.763127	Fishery	-0.69897
-5.416339	Fishes	-0.2725315
-5.717369	Fishiest	-0.09143031
-5.717369	Fits	-0.09143031
-5.717369	Fitz	-0.09143031
-5.717369	Five	-0.09143031
-3.700336	Flask	-1.720159
-5.717369	Flat	-0.09143031
-4.675977	Fleece	-0.7781512
-5.717369	Fleet	-0.09143031
-5.717369	Flip	-0.09143031
-5.416339	Floating	-0.2725315
-5.717369	Floundered	-0.09143031
-5.717369	Flounders	-0.09143031
-5.717369	Flukes	-0.09143031
-5.717369	Flying	-0.09143031
-5.717369	Fogo	-0.09143031
-5.717369	Folding	-0.09143031
-5.717369	Folger	-0.09143031
-5.717369	Folgers	-0.09143031
-5.018399	Folio	-0.4028369
-5.717369	Folios	-0.09143031
-5.416339	Fool	-0.2725315
-5.717369	Foolish	-0.09143031
-3.422903	For	-1.995635
-5.717369	Forced	-0.09143031
-5.717369	Fore	-0.09143031
-5.416339	Forecastle	-0.2725315
-5.717369	Forehead	-0.09143031
-5.717369	Foremost	-0.09143031
-5.717369	Forge	-0.09143031
-5.416339	Form	-0.2725315
-5.717369	Forming	-0.09143031
-5.717369	Formosa	-0.09143031
-5.717369	Forthwith	-0.09143031
-5.018399	Forty	-0.4028369
-5.416339	Forward	-0.2725315
-5.240248	Fossil	-0.1567049
-5.717369	Fountain	-0.09143031
-5.018399	Fourth	-0.4028369
-5.018399	France	-0.4028369
-5.717369	Frankfort	-0.09143031
-5.717369	Franklin	-0.09143031
-5.115309	Frederick	-0.5438738
-5.717369	Free	-0.09143031
-5.717369	Freely	-0.09143031
-5.717369	Freeze	-0.09143031
-4.462097	French	-0.9777237
-4.872271	Frenchman	-0.8257958
-5.717369	Frenchmen	-0.09143031
-5.717369	Friar	-0.09143031
-5.717369	Friend	-0.09143031
-5.717369	Friends	-0.09143031
-5.416339	Friesland	-0.2725315
-5.717369	Frighted	-0.09143031
-5.717369	Frobisher	-0.09143031
-5.717369	Froissart	-0.09143031
-4.302396	From	-1.130334
-5.717369	Fuego	-0.09143031
-5.416339	Full	-0.2725315
-5.717369	Funeral	-0.09143031
-5.717369	Furl	-0.09143031
-5.416339	Further	-0.2725315
-5.115309	Furthermore	-0.5438738
-5.717369	Future	-0.09143031
-5.240248	GAM	-0.1567049
-5.717369	GANGWAY	-0.09143031
-5.717369	GATHER	-0.09143031
-5.717369	GATHERED	-0.09143031
-5.717369	GAZING	-0.09143031
-5.717369	GENERALLY	-0.09143031
-5.717369	GENESIS	-0.09143031
-5.717369	GLEIG	-0.09143031
-5.115309	GLOBE	-0.5438738
-5.240248	GO	-0.1567049
-5.717369	GOES	-0.09143031
-5.717369	GOETHE	-0.09143031
-5.717369	GOLDEN	-0.09143031
-5.416339	GOLDSMITH	-0.2725315
-5.717369	GONDIBERT	-0.09143031
-5.717369	GOOD	-0.09143031
-5.240248	GRAMPUS	-0.1567049
-5.416339	GRAND	-0.2725315
-5.717369	GREEK	-0.09143031
-5.717369	GREENLAND	-0.09143031
-5.717369	GRIMLY	-0.09143031
-5.717369	GROUND	-0.09143031
-4.416339	Gabriel	-1.021189
-5.717369	Gaining	-0.09143031
-5.416339	Gall	-0.2725315
-5.717369	Galleries	-0.09143031
-5.416339	Gallipagos	-0.2725315
-5.717369	Gam	-0.09143031
-5.717369	Gamming	-0.09143031
-5.717369	Ganders	-0.09143031
-5.717369	Ganges	-0.09143031
-5.416339	Gardiner	-0.2725315
-5.115309	Garnery	-0.5438738
-5.717369	Gases	-0.09143031
-5.717369	Gate	-0.09143031
-5.717369	Gather	-0.09143031
-4.814279	Gay	-0.6532125
-5.717369	Gayer	-0.09143031
-5.416339	Gayhead	-0.2725315
-5.717369	Gazette	-0.09143031
-5.416339	Gemini	-0.2725315
-5.115309	General	-0.5438738
-5.717369	Genesis	-0.09143031
-5.717369	Geneva	-0.09143031
-5.717369	Genius	-0.09143031
-5.717369	Gentlemen	-0.09143031
-5.717369	Gently	-0.09143031
-5.717369	Geological	-0.09143031
-4.717369	George	-0.7403627
-5.717369	Ger	-0.09143031
-5.717369	Germain	-0.09143031
-4.541278	German	-0.9030901
-5.240248	Germans	-0.1567049
-5.717369	Gesner	-0.09143031
-5.240248	Get	-0.1567049
-5.717369	Ghent	-0.09143031
-5.416339	Gibraltar	-0.2725315
-5.717369	Gifted	-0.09143031
-5.717369	Gilder	-0.09143031
-5.018399	Ginger	-0.4028369
-4.541278	Give	-0.9030901
-5.717369	Giver	-0.09143031
-5.416339	Giving	-0.2725315
-5.416339	Glacier	-0.2725315
-5.416339	Glancing	-0.2725315
-5.717369	Glen	-0.09143031
-5.717369	Gliding	-0.09143031
-5.717369	Glimpses	-0.09143031
-5.717369	Globe	-0.09143031
-5.717369	Glory	-0.09143031
-5.717369	Gnawed	-0.09143031
-4.763127	Go	-0.69897
-5.717369	Goa	-0.09143031
-5.717369	Goat	-0.09143031
-3.596795	God	-1.822822
-5.240248	Gods	-0.1567049
-5.717369	Goethe	-0.09143031
-4.939218	Going	-0.5608894
-5.717369	Golconda	-0.09143031
-5.717369	Gold	-0.09143031
-5.240248	Golden	-0.1567049
-5.717369	Goldsmith	-0.09143031
-5.240248	Gomorrah	-0.1567049
-5.717369	Gone	-0.09143031
-5.240248	Goney	-0.1567049
-4.355641	Good	-1.079181
-5.717369	Goodwin	-0.09143031
-5.416339	Gor	-0.2725315
-5.717369	Gospel	-0.09143031
-5.115309	Gothic	-0.5438738
-5.115309	Grace	-0.5438738
-5.717369	Gracious	-0.09143031
-5.416339	Grammar	-0.2725315
-5.717369	Grampus	-0.09143031
-4.763127	Grand	-0.69897
-5.717369	Grant	-0.09143031
-5.416339	Granting	-0.2725315
-4.603426	Great	-0.8450981
-5.416339	Grecian	-0.2725315
-5.416339	Greece	-0.2725315
-5.717369	Greedily	-0.09143031
-4.814279	Greek	-0.6532125
-5.416339	Greeks	-0.2725315
-5.115309	Green	-0.5438738
-4.173301	Greenland	-1.255272
-5.717369	Greenlanders	-0.09143031
-5.717369	Greenlandmen	-0.09143031
-5.717369	Greenwich	-0.09143031
-5.717369	Grenadier	-0.09143031
-5.717369	Grief	-0.09143031
-5.717369	Grin	-0.09143031
-5.717369	Grisly	-0.09143031
-5.717369	Groan	-0.09143031
-5.717369	Gros	-0.09143031
-5.115309	Ground	-0.5438738
-5.717369	Grounds	-0.09143031
-5.717369	Growlands	-0.09143031
-5.717369	Grub	-0.09143031
-4.675977	Guernsey	-0.7781512
-5.717369	Guernseyman	-0.09143031
-5.416339	Guido	-0.2725315
-5.115309	Guinea	-0.5438738
-5.416339	Gulf	-0.2725315
-5.717369	Gulfweed	-0.09143031
-5.717369	Gull	-0.09143031
-5.717369	Gurry	-0.09143031
-5.416339	H	-0.2725315
-5.717369	HACKLUYT	-0.09143031
-5.717369	HAILS	-0.09143031
-5.717369	HALF	-0.09143031
-5.717369	HAMLET	-0.09143031
-5.240248	HAND	-0.1567049
-5.717369	HANDS	-0.09143031
-5.717369	HANGING	-0.09143031
-5.717369	HARD	-0.09143031
-5.717369	HARDY	-0.09143031
-5.717369	HARPOONEERS	-0.09143031
-5.416339	HARRIS	-0.2725315
-5.717369	HAS	-0.09143031
-5.717369	HATCHWAY	-0.09143031
-5.717369	HAVING	-0.09143031
-5.717369	HAWTHORNE	-0.09143031
-5.018399	HE	-0.4028369
-5.717369	HEAD	-0.09143031
-5.717369	HEARS	-0.09143031
-5.717369	HEIGHT	-0.09143031
-5.717369	HELM	-0.09143031
-5.416339	HENRY	-0.2725315
-5.717369	HERBERT	-0.09143031
-5.115309	HERE	-0.5438738
-5.717369	HEREABOUTS	-0.09143031
-4.939218	HIM	-0.5608894
-5.717369	HIMSELF	-0.09143031
-4.48692	HIS	-0.9542425
-5.416339	HIST	-0.2725315
-5.115309	HISTORY	-0.5438738
-5.416339	HO	-0.2725315
-5.717369	HOBBES	-0.09143031
-5.717369	HOBOMACK	-0.09143031
-5.416339	HOLLAND	-0.2725315
-5.717369	HOLY	-0.09143031
-5.717369	HOMEWARD	-0.09143031
-5.717369	HOMINUM	-0.09143031
-5.717369	HORIZONTAL	-0.09143031
-5.717369	HORRID	-0.09143031
-5.717369	HOW	-0.09143031
-5.416339	HUMP	-0.2725315
-5.717369	HUNTER	-0.09143031
-5.717369	HUSSEY	-0.09143031
-5.717369	HUZZA	-0.09143031
-5.717369	HVAL	-0.09143031
-5.416339	HVALT	-0.2725315
-5.717369	HWAL	-0.09143031
-4.39515	Ha	-1.041393
-5.717369	Haarlem	-0.09143031
-5.416339	Hackluyt	-0.2725315
-4.638188	Had	-0.8129134
-5.717369	Hadst	-0.09143031
-5.717369	Hah	-0.09143031
-5.717369	Hail	-0.09143031
-5.717369	Hake	-0.09143031
-5.717369	Hall	-0.09143031
-5.717369	Hallo	-0.09143031
-4.763127	Halloa	-0.69897
-5.717369	Halloo	-0.09143031
-5.717369	Halting	-0.09143031
-5.240248	Hampshire	-0.1567049
-5.717369	Hampton	-0.09143031
-4.939218	Hand	-0.5608894
-5.717369	Handling	-0.09143031
-4.939218	Hands	-0.5608894
-5.717369	Hang	-0.09143031
-5.717369	Hannibal	-0.09143031
-5.717369	Hanoverian	-0.09143031
-5.717369	Har	-0.09143031
-4.814279	Harbor	-0.6532125
-5.240248	Hard	-0.1567049
-5.717369	Hardicanutes	-0.09143031
-5.416339	Hardly	-0.2725315
-4.638188	Hark	-0.8129134
-5.717369	Harmattans	-0.09143031
-5.717369	Harold	-0.09143031
-5.115309	Harpooneer	-0.5438738
-5.416339	Harpoons	-0.2725315
-5.240248	Harris	-0.1567049
-5.240248	Harry	-0.1567049
-5.717369	Harto	-0.09143031
-5.717369	Hartz	-0.09143031
-5.416339	Harvard	-0.2725315
-5.115309	Has	-0.5438738
-4.717369	Hast	-0.7403627
-5.717369	Hat	-0.09143031
-4.939218	Haul	-0.5608894
-4.814279	Have	-0.6532125
-5.240248	Having	-0.1567049
-5.416339	Hawaiian	-0.2725315
-5.717369	Hay	-0.09143031
-3.355641	He	-2.062582
-4.763127	Head	-0.69897
-5.416339	Headed	-0.2725315
-5.115309	Header	-0.5438738
-5.717369	Headers	-0.09143031
-5.717369	Heading	-0.09143031
-5.717369	Heads	-0.09143031
-5.240248	Hear	-0.1567049
-5.240248	Hearing	-0.1567049
-5.717369	Hearkening	-0.09143031
-5.717369	Heart	-0.09143031
-5.717369	Heated	-0.09143031
-5.717369	Heave	-0.09143031
-4.675977	Heaven	-0.7781512
-5.240248	Hebrew	-0.1567049
-5.717369	Hebrews	-0.09143031
-5.717369	Hecla	-0.09143031
-5.717369	Hedgehog	-0.09143031
-5.416339	Heed	-0.2725315
-5.416339	Heeva	-0.2725315
-4.814279	Heidelburgh	-0.6532125
-5.717369	Helena	-0.09143031
-5.240248	Hell	-0.1567049
-5.240248	Helm	-0.1567049
-5.717369	Help	-0.09143031
-5.416339	Hem	-0.2725315
-5.416339	Hemp	-0.2725315
-4.763127	Hence	-0.69897
-5.717369	Henry	-0.09143031
-5.240248	Her	-0.1567049
-5.717369	Herculaneum	-0.09143031
-4.939218	Hercules	-0.5608894
-4.027173	Here	-1.39794
-5.416339	Hereby	-0.2725315
-5.717369	Herein	-0.09143031
-5.717369	Herman	-0.09143031
-5.717369	Herod	-0.09143031
-5.717369	Herr	-0.09143031
-5.717369	Herschel	-0.09143031
-5.717369	Hiding	-0.09143031
-4.814279	High	-0.6532125
-5.240248	Highland	-0.1567049
-5.717369	Hill	-0.09143031
-5.240248	Him	-0.1567049
-5.717369	Himmalehan	-0.09143031
-5.416339	Himmalehs	-0.2725315
-5.717369	Himself	-0.09143031
-5.717369	Hind	-0.09143031
-5.018399	Hindoo	-0.4028369
-5.717369	Hindoos	-0.09143031
-5.717369	Hindostan	-0.09143031
-3.984976	His	-1.439333
-5.717369	Hish	-0.09143031
-5.115309	Hist	-0.5438738
-5.717369	Historians	-0.09143031
-5.717369	Historically	-0.09143031
-5.115309	History	-0.5438738
-5.717369	Hither	-0.09143031
-5.717369	Hitherto	-0.09143031
-5.717369	Hittite	-0.09143031
-4.374947	Ho	-1.060698
-5.717369	Hoe	-0.09143031
-5.717369	Hogarth	-0.09143031
-5.717369	Hogarthian	-0.09143031
-5.717369	Hoisting	-0.09143031
-4.763127	Hold	-0.69897
-5.240248	Holding	-0.1567049
-5.018399	Holland	-0.4028369
-5.717369	Hollanders	-0.09143031
-5.240248	Holloa	-0.1567049
-5.717369	Holofernes	-0.09143031
-5.018399	Holy	-0.4028369
-5.717369	Honour	-0.09143031
-5.717369	Honourary	-0.09143031
-5.717369	Hoods	-0.09143031
-5.416339	Hook	-0.2725315
-5.717369	Hoot	-0.09143031
-4.872271	Hope	-0.8257958
-5.717369	Horatii	-0.09143031
-4.462097	Horn	-0.9777237
-5.717369	Horned	-0.09143031
-5.717369	Horner	-0.09143031
-5.717369	Horrible	-0.09143031
-5.717369	Horse	-0.09143031
-5.018399	Hosea	-0.4028369
-5.717369	Hosmannus	-0.09143031
-5.717369	Hospital	-0.09143031
-5.717369	Hotel	-0.09143031
-5.717369	House	-0.09143031
-5.717369	Hoveringly	-0.09143031
-3.891294	How	-1.531479
-4.541278	However	-0.9030901
-5.416339	Hudson	-0.2725315
-5.717369	Huge	-0.09143031
-5.717369	Hugest	-0.09143031
-5.416339	Huggins	-0.2725315
-5.416339	Hull	-0.2725315
-5.416339	Human	-0.2725315
-5.717369	Humane	-0.09143031
-5.717369	Humiliation	-0.09143031
-5.717369	Humpback	-0.09143031
-5.416339	Humph	-0.2725315
-5.240248	Hunter	-0.1567049
-5.717369	Huron	-0.09143031
-4.814279	Hurrah	-0.6532125
-5.717369	Hurriedly	-0.09143031
-4.513249	Hussey	-0.929419
-5.018399	Huzza	-0.4028369
-5.717369	Hydriote	-0.09143031
-5.717369	Hydrus	-0.09143031
-5.240248	Hyena	-0.1567049
-5.717369	Hygiene	-0.09143031
-5.416339	Hyperborean	-0.2725315
-2.390215	I	-3.026329
-5.717369	IAN	-0.09143031
-5.240248	IBID	-0.1567049
-5.416339	ICELAND	-0.2725315
-5.717369	ICELANDIC	-0.09143031
-4.541278	II	-0.9030901
-4.638188	III	-0.8129134
-5.717369	ILE	-0.09143031
-5.717369	IMPOSING	-0.09143031
-4.438616	IN	-1
-5.717369	INN	-0.09143031
-5.717369	INTO	-0.09143031
-5.240248	IS	-0.1567049
-5.717369	ISAIAH	-0.09143031
-5.717369	ISHMAEL	-0.09143031
-5.717369	ISLAND	-0.09143031
-5.717369	ISLANDS	-0.09143031
-5.717369	ISOLATO	-0.09143031
-5.717369	ISOLATOES	-0.09143031
-5.240248	IT	-0.1567049
-5.717369	ITS	-0.09143031
-5.115309	IV	-0.5438738
-5.416339	IVORY	-0.2725315
-5.717369	Iceberg	-0.09143031
-5.717369	Icebergs	-0.09143031
-5.416339	Iceland	-0.2725315
-5.416339	Icelandic	-0.2725315
-5.240248	Icy	-0.1567049
-3.939218	If	-1.4843
-5.717369	Ifs	-0.09143031
-5.717369	Ignorance	-0.09143031
-5.240248	Illinois	-0.1567049
-5.240248	Immediately	-0.1567049
-5.717369	Immemorial	-0.09143031
-5.717369	Immense	-0.09143031
-5.717369	Immortal	-0.09143031
-5.717369	Impenetrable	-0.09143031
-5.717369	Imperial	-0.09143031
-5.717369	Impiety	-0.09143031
-5.416339	Impossible	-0.2725315
-5.717369	Imprimis	-0.09143031
-5.717369	Improving	-0.09143031
-3.342621	In	-2.075547
-5.717369	Inasmuch	-0.09143031
-4.872271	Indeed	-0.8257958
-5.018399	India	-0.4028369
-5.717369	Indiaman	-0.09143031
-5.717369	Indiamen	-0.09143031
-3.961494	Indian	-1.462398
-5.115309	Indians	-0.5438738
-5.416339	Indies	-0.2725315
-5.717369	Indolence	-0.09143031
-5.717369	Inert	-0.09143031
-5.717369	Inferable	-0.09143031
-5.717369	Ingin	-0.09143031
-5.717369	Inlanders	-0.09143031
-4.763127	Inn	-0.69897
-5.717369	Innkeeper	-0.09143031
-5.717369	Innocents	-0.09143031
-5.717369	Inquisition	-0.09143031
-5.717369	Inserting	-0.09143031
-5.717369	Instances	-0.09143031
-4.939218	Instantly	-0.5608894
-5.717369	Instead	-0.09143031
-5.717369	Insufferable	-0.09143031
-5.416339	Insurance	-0.2725315
-5.717369	Interweaving	-0.09143031
-5.416339	Into	-0.2725315
-5.717369	Intolerably	-0.09143031
-5.717369	Invisible	-0.09143031
-5.717369	Inward	-0.09143031
-5.416339	Io	-0.2725315
-5.717369	Ireland	-0.09143031
-5.717369	Irish	-0.09143031
-5.416339	Iron	-0.2725315
-5.416339	Iroquois	-0.2725315
-4.286005	Is	-1.146128
-5.717369	Isabella	-0.09143031
-5.717369	Isaiah	-0.09143031
-4.438616	Ishmael	-1
-5.018399	Island	-0.4028369
-5.115309	Islanders	-0.5438738
-5.018399	Islands	-0.4028369
-5.115309	Isle	-0.5438738
-5.240248	Isles	-0.1567049
-5.717369	Isolatoes	-0.09143031
-5.717369	Israel	-0.09143031
-5.717369	Israelites	-0.09143031
-5.717369	Issuing	-0.09143031
-5.717369	Isthmus	-0.09143031
-3.226007	It	-2.19173
-5.115309	Italian	-0.5438738
-5.717369	Italy	-0.09143031
-5.240248	Its	-0.1567049
-5.717369	Ixion	-0.09143031
-5.115309	J	-0.5438738
-5.717369	JAGO	-0.09143031
-5.717369	JEFFERSON	-0.09143031
-5.717369	JOB	-0.09143031
-5.416339	JOHN	-0.2725315
-5.717369	JOHNSON	-0.09143031
-5.416339	JOIST	-0.2725315
-5.717369	JONAH	-0.09143031
-5.717369	JOURNAL	-0.09143031
-5.240248	Jack	-0.1567049
-5.717369	Jackson	-0.09143031
-5.717369	Jacob	-0.09143031
-5.416339	Jaffa	-0.2725315
-5.717369	Jago	-0.09143031
-4.717369	Japan	-0.7403627
-4.717369	Japanese	-0.7403627
-5.717369	Japans	-0.09143031
-4.872271	Java	-0.8257958
-5.416339	Javan	-0.2725315
-5.717369	Jebb	-0.09143031
-5.240248	Jenny	-0.1567049
-5.416339	Jeremy	-0.2725315
-5.416339	Jerk	-0.2725315
-4.717369	Jeroboam	-0.7403627
-5.717369	Jesu	-0.09143031
-5.717369	Jesus	-0.09143031
-5.717369	Jew	-0.09143031
-5.717369	Jews	-0.09143031
-5.717369	Jig	-0.09143031
-5.717369	Jimimi	-0.09143031
-5.717369	Jimmini	-0.09143031
-5.717369	Jinglers	-0.09143031
-5.018399	Job	-0.4028369
-5.717369	Joe	-0.09143031
-4.675977	John	-0.7781512
-5.717369	Johnny	-0.09143031
-5.240248	Johnson	-0.1567049
-5.717369	Jollies	-0.09143031
-5.717369	Jollily	-0.09143031
-3.79309	Jonah	-1.628389
-5.240248	Jonas	-0.1567049
-5.717369	Jonathan	-0.09143031
-5.240248	Jones	-0.1567049
-4.814279	Joppa	-0.6532125
-5.717369	Jordan	-0.09143031
-4.763127	Jove	-0.69897
-5.717369	Joy	-0.09143031
-5.717369	Juan	-0.09143031
-5.717369	Juba	-0.09143031
-5.717369	Judea	-0.09143031
-5.018399	Judge	-0.4028369
-5.717369	Judges	-0.09143031
-5.240248	Judgment	-0.1567049
-5.717369	Judith	-0.09143031
-5.416339	July	-0.2725315
-5.717369	Julys	-0.09143031
-5.717369	Jump	-0.09143031
-5.717369	Jumped	-0.09143031
-5.416339	June	-0.2725315
-5.018399	Jungfrau	-0.4028369
-5.717369	Junk	-0.09143031
-5.115309	Jupiter	-0.5438738
-5.717369	Jury	-0.09143031
-4.872271	Just	-0.8257958
-5.416339	Justice	-0.2725315
-5.416339	Justinian	-0.2725315
-5.717369	KEDGER	-0.09143031
-5.717369	KETOS	-0.09143031
-5.240248	KILLER	-0.1567049
-5.416339	KING	-0.2725315
-5.717369	KINROSS	-0.09143031
-5.717369	Ka	-0.09143031
-5.717369	Kant	-0.09143031
-5.717369	Kedron	-0.09143031
-5.416339	Kee	-0.2725315
-5.717369	Keel	-0.09143031
-5.240248	Keep	-0.1567049
-5.717369	Keeping	-0.09143031
-5.416339	Kentuckian	-0.2725315
-5.717369	Kentucky	-0.09143031
-5.717369	Khan	-0.09143031
-5.717369	Kick	-0.09143031
-5.240248	Kill	-0.1567049
-5.416339	Killed	-0.2725315
-5.416339	Killer	-0.2725315
-5.717369	Kills	-0.09143031
-4.149168	King	-1.278754
-5.717369	Kingdom	-0.09143031
-5.115309	Kings	-0.5438738
-5.717369	Kit	-0.09143031
-5.416339	Knife	-0.2725315
-5.717369	Knight	-0.09143031
-5.416339	Knights	-0.2725315
-5.717369	Know	-0.09143031
-5.717369	Koo	-0.09143031
-5.717369	Korah	-0.09143031
-5.717369	Kraken	-0.09143031
-5.717369	Kremlin	-0.09143031
-5.416339	Krusenstern	-0.2725315
-5.717369	Krusensterns	-0.09143031
-5.717369	L	-0.09143031
-5.717369	L1	-0.09143031
-5.416339	L100	-0.2725315
-5.717369	L150	-0.09143031
-5.717369	LAID	-0.09143031
-5.717369	LAMB	-0.09143031
-5.717369	LANTERNS	-0.09143031
-5.416339	LARGE	-0.2725315
-5.717369	LASCAR	-0.09143031
-5.416339	LASHINGS	-0.2725315
-5.717369	LATIN	-0.09143031
-4.872271	LAY	-0.8257958
-5.717369	LAYS	-0.09143031
-5.416339	LEANING	-0.2725315
-5.416339	LEAP	-0.2725315
-5.717369	LEAPS	-0.09143031
-5.717369	LEATHER	-0.09143031
-5.717369	LEG	-0.09143031
-5.717369	LENGTHWISE	-0.09143031
-5.717369	LETTER	-0.09143031
-5.717369	LETTERS	-0.09143031
-5.717369	LEVIATHAN	-0.09143031
-5.717369	LIE	-0.09143031
-5.416339	LIFE	-0.2725315
-5.717369	LIGHT	-0.09143031
-5.717369	LIGHTNING	-0.09143031
-5.717369	LINE	-0.09143031
-5.416339	LL	-0.2725315
-5.717369	LOCK	-0.09143031
-5.717369	LONDON	-0.09143031
-5.115309	LONG	-0.5438738
-5.717369	LORD	-0.09143031
-5.717369	LOST	-0.09143031
-5.717369	LOUNGING	-0.09143031
-5.717369	LUCIAN	-0.09143031
-5.416339	LYING	-0.2725315
-5.416339	La	-0.2725315
-5.717369	Labor	-0.09143031
-5.240248	Labrador	-0.1567049
-5.240248	Lacepede	-0.1567049
-5.717369	Lackaday	-0.09143031
-5.717369	Lad	-0.09143031
-5.717369	Lais	-0.09143031
-5.717369	Lake	-0.09143031
-4.337158	Lakeman	-1.09691
-5.717369	Lama	-0.09143031
-5.717369	Lamatins	-0.09143031
-5.717369	Lamp	-0.09143031
-5.416339	Land	-0.2725315
-4.872271	Landlord	-0.8257958
-5.717369	Lane	-0.09143031
-5.018399	Langsdorff	-0.4028369
-5.717369	Lank	-0.09143031
-5.717369	Lapland	-0.09143031
-5.717369	Laplander	-0.09143031
-5.717369	Laplandish	-0.09143031
-5.717369	Lascars	-0.09143031
-5.717369	Lashed	-0.09143031
-5.717369	Late	-0.09143031
-5.115309	Latin	-0.5438738
-5.717369	Latter	-0.09143031
-5.717369	Launched	-0.09143031
-5.240248	Lavater	-0.1567049
-5.717369	Law	-0.09143031
-5.717369	Laws	-0.09143031
-5.115309	Lay	-0.5438738
-5.018399	Lazarus	-0.4028369
-5.717369	Leading	-0.09143031
-5.717369	Leaning	-0.09143031
-5.717369	Leap	-0.09143031
-5.416339	Learning	-0.2725315
-5.717369	Least	-0.09143031
-5.717369	Led	-0.09143031
-5.416339	Ledyard	-0.2725315
-5.717369	Lee	-0.09143031
-5.717369	Leeward	-0.09143031
-5.416339	Leg	-0.2725315
-5.717369	Legs	-0.09143031
-5.717369	Leicester	-0.09143031
-5.717369	Lent	-0.09143031
-5.717369	Lents	-0.09143031
-5.240248	Leo	-0.1567049
-5.416339	Less	-0.2725315
-5.717369	Lesson	-0.09143031
-4.137586	Let	-1.290035
-5.416339	Letter	-0.2725315
-5.717369	Leuwenhoeck	-0.09143031
-5.717369	Levanter	-0.09143031
-5.717369	Level	-0.09143031
-5.717369	Levelling	-0.09143031
-3.911189	Leviathan	-1.511883
-5.115309	Leviathanic	-0.5438738
-5.717369	Leviathanism	-0.09143031
-4.872271	Leviathans	-0.8257958
-5.717369	Lexicon	-0.09143031
-5.240248	Leyden	-0.1567049
-5.717369	Liberties	-0.09143031
-5.416339	Libra	-0.2725315
-5.717369	Librarian	-0.09143031
-5.717369	Lieutenant	-0.09143031
-4.717369	Life	-0.7403627
-5.717369	Lifted	-0.09143031
-5.717369	Light	-0.09143031
-5.717369	Lighting	-0.09143031
-5.717369	Lightning	-0.09143031
-5.717369	Lights	-0.09143031
-4.355641	Like	-1.079181
-5.018399	Likewise	-0.4028369
-4.717369	Lima	-0.7403627
-5.717369	Limeese	-0.09143031
-4.513249	Line	-0.929419
-5.018399	Linnaeus	-0.4028369
-5.717369	Lion	-0.09143031
-5.240248	Lionel	-0.1567049
-5.240248	Listen	-0.1567049
-5.717369	Lit	-0.09143031
-5.717369	Literally	-0.09143031
-5.416339	Little	-0.2725315
-5.717369	Littleton	-0.09143031
-5.717369	Lively	-0.09143031
-5.240248	Lo	-0.1567049
-5.717369	Loaded	-0.09143031
-5.717369	Locke	-0.09143031
-5.416339	Locks	-0.2725315
-5.717369	Loftiest	-0.09143031
-5.717369	Log	-0.09143031
-5.717369	Logan	-0.09143031
-5.416339	Lombardy	-0.2725315
-4.603426	London	-0.8450981
-4.675977	Long	-0.7781512
-4.009799	Look	-1.414973
-5.717369	Lookee	-0.09143031
-5.416339	Looking	-0.2725315
-5.717369	Loom	-0.09143031
-5.717369	Loomings	-0.09143031
-4.571241	Loose	-0.8750613
-4.073916	Lord	-1.352183
-5.717369	Lose	-0.09143031
-5.416339	Lost	-0.2725315
-5.416339	Lothario	-0.2725315
-5.018399	Louis	-0.4028369
-5.717369	Louisiana	-0.09143031
-5.717369	Loveliness	-0.09143031
-5.115309	Low	-0.5438738
-4.872271	Lower	-0.8257958
-5.717369	Lowering	-0.09143031
-5.717369	Lucifer	-0.09143031
-5.717369	Luck	-0.09143031
-5.717369	Lucky	-0.09143031
-5.416339	Luff	-0.2725315
-5.416339	Lying	-0.2725315
-5.717369	M	-0.09143031
-5.416339	MACY	-0.2725315
-5.717369	MAIN	-0.09143031
-5.717369	MAINMAST	-0.09143031
-5.416339	MALTESE	-0.2725315
-5.240248	MANX	-0.1567049
-5.717369	MARBLE	-0.09143031
-5.717369	MAT	-0.09143031
-5.240248	MATE	-0.1567049
-5.717369	MATES	-0.09143031
-5.717369	MCCULLOCH	-0.09143031
-5.115309	ME	-0.5438738
-5.717369	MEALY	-0.09143031
-5.717369	MEANTIME	-0.09143031
-5.416339	MEETING	-0.2725315
-5.717369	MEMORIAL	-0.09143031
-5.240248	MEMORY	-0.1567049
-5.717369	MEN	-0.09143031
-5.717369	MENDING	-0.09143031
-5.717369	MINISTER	-0.09143031
-5.717369	MIRABILIS	-0.09143031
-5.717369	MIRIAM	-0.09143031
-5.717369	MISSIONARY	-0.09143031
-5.717369	MONTAIGNE	-0.09143031
-5.717369	MONTGOMERY	-0.09143031
-5.717369	MORALS	-0.09143031
-5.416339	MORE	-0.2725315
-5.717369	MORTAL	-0.09143031
-5.717369	MOUNTED	-0.09143031
-5.717369	MOUTH	-0.09143031
-5.717369	MOUTHED	-0.09143031
-5.717369	MOVES	-0.09143031
-5.717369	MOVING	-0.09143031
-5.717369	MSS	-0.09143031
-5.717369	MULTUM	-0.09143031
-5.717369	MUTINEER	-0.09143031
-5.240248	MY	-0.1567049
-5.717369	MYSTERIOUS	-0.09143031
-5.717369	Maachah	-0.09143031
-5.717369	Mab	-0.09143031
-5.717369	Maccabees	-0.09143031
-4.872271	Macey	-0.8257958
-5.717369	Maceys	-0.09143031
-5.416339	Mackinaw	-0.2725315
-5.717369	Macrocephalus	-0.09143031
-5.717369	Macy	-0.09143031
-5.717369	Mad	-0.09143031
-5.717369	Madame	-0.09143031
-5.717369	Madman	-0.09143031
-5.717369	Madness	-0.09143031
-5.717369	Maelstrom	-0.09143031
-5.717369	Magian	-0.09143031
-5.717369	Magnanimous	-0.09143031
-5.717369	Magnitude	-0.09143031
-5.717369	Mahomet	-0.09143031
-5.416339	Main	-0.2725315
-5.240248	Make	-0.1567049
-5.717369	Maker	-0.09143031
-5.717369	Making	-0.09143031
-5.416339	Malacca	-0.2725315
-5.717369	Malay	-0.09143031
-5.115309	Malays	-0.5438738
-5.717369	Mammoth	-0.09143031
-4.438616	Man	-1
-5.717369	Manchester	-0.09143031
-5.717369	Manhatto	-0.09143031
-5.717369	Manhattoes	-0.09143031
-5.018399	Manilla	-0.4028369
-5.717369	Manillas	-0.09143031
-5.717369	Mansoul	-0.09143031
-5.717369	Manx	-0.09143031
-4.638188	Manxman	-0.8129134
-5.018399	Many	-0.4028369
-4.763127	Mapple	-0.69897
-5.717369	Marchant	-0.09143031
-5.717369	Marine	-0.09143031
-5.717369	Marius	-0.09143031
-4.939218	Mark	-0.5608894
-5.717369	Marking	-0.09143031
-5.717369	Marmora	-0.09143031
-5.717369	Marten	-0.09143031
-5.115309	Martha	-0.5438738
-5.717369	Martial	-0.09143031
-5.416339	Martin	-0.2725315
-4.872271	Mary	-0.8257958
-5.717369	Mason	-0.09143031
-5.240248	Massa	-0.1567049
-5.240248	Massachusetts	-0.1567049
-5.717369	Massacre	-0.09143031
-5.018399	Mast	-0.4028369
-5.717369	Mastodon	-0.09143031
-5.717369	Mat	-0.09143031
-5.717369	Mate	-0.09143031
-5.717369	Matse	-0.09143031
-5.717369	Matsmai	-0.09143031
-5.717369	Matter	-0.09143031
-5.717369	Maury	-0.09143031
-4.717369	May	-0.7403627
-5.717369	Maybe	-0.09143031
-4.814279	Mayhew	-0.6532125
-5.717369	Mazeppa	-0.09143031
-5.416339	Me	-0.2725315
-5.717369	Mealy	-0.09143031
-5.717369	Mean	-0.09143031
-4.438616	Meantime	-1
-4.513249	Meanwhile	-0.929419
-5.717369	Measured	-0.09143031
-5.717369	Measurement	-0.09143031
-5.717369	Mecca	-0.09143031
-5.717369	Meddling	-0.09143031
-5.717369	Medes	-0.09143031
-4.763127	Mediterranean	-0.69897
-4.939218	Meets	-0.5608894
-5.717369	Melancthon	-0.09143031
-5.717369	Melville	-0.09143031
-5.416339	Memory	-0.2725315
-4.872271	Men	-0.8257958
-5.717369	Mend	-0.09143031
-5.717369	Mendanna	-0.09143031
-5.416339	Mene	-0.2725315
-5.717369	Mephistophelean	-0.09143031
-5.115309	Merchant	-0.5438738
-5.717369	Merely	-0.09143031
-5.717369	Merrily	-0.09143031
-5.416339	Merry	-0.2725315
-5.717369	Meshach	-0.09143031
-5.717369	Mesopotamian	-0.09143031
-5.717369	Met	-0.09143031
-4.939218	Methinks	-0.5608894
-5.717369	Methuselah	-0.09143031
-5.240248	Mexico	-0.1567049
-5.717369	Michael	-0.09143031
-5.416339	Michigan	-0.2725315
-5.416339	Middle	-0.2725315
-5.240248	Midnight	-0.1567049
-5.717369	Midships	-0.09143031
-5.717369	Midwifery	-0.09143031
-5.416339	Miguel	-0.2725315
-5.717369	Miles	-0.09143031
-5.717369	Milky	-0.09143031
-5.717369	Mills	-0.09143031
-5.416339	Mind	-0.2725315
-5.717369	Mingling	-0.09143031
-5.717369	Miracle	-0.09143031
-5.416339	Miriam	-0.2725315
-5.717369	Miserable	-0.09143031
-5.240248	Mississippi	-0.1567049
-5.717369	Mississippies	-0.09143031
-5.416339	Missouri	-0.2725315
-5.717369	Mistress	-0.09143031
-5.717369	Mixed	-0.09143031
-3.79309	Moby	-1.628389
-5.018399	Mogul	-0.4028369
-5.717369	Mogulship	-0.09143031
-5.717369	Mohawk	-0.09143031
-5.416339	Moluccas	-0.2725315
-5.717369	Monadnock	-0.09143031
-5.416339	Monday	-0.2725315
-5.717369	Monkey	-0.09143031
-5.717369	Monongahela	-0.09143031
-4.872271	Monsieur	-0.8257958
-5.717369	Monsieurs	-0.09143031
-5.717369	Monsoons	-0.09143031
-5.717369	Monstrous	-0.09143031
-5.717369	Moorish	-0.09143031
-5.717369	Mordecai	-0.09143031
-5.018399	More	-0.4028369
-4.717369	Moreover	-0.7403627
-5.717369	Morgana	-0.09143031
-4.939218	Morning	-0.5608894
-5.717369	Morquan	-0.09143031
-5.717369	Morrel	-0.09143031
-5.416339	Moses	-0.2725315
-5.416339	Mosque	-0.2725315
-5.115309	Moss	-0.5438738
-5.018399	Most	-0.4028369
-5.717369	Mote	-0.09143031
-5.717369	Mother	-0.09143031
-5.018399	Mountains	-0.4028369
-5.115309	Mounttop	-0.5438738
-5.717369	Moving	-0.09143031
-3.918029	Mr	-1.50515
-4.603426	Mrs	-0.8450981
-5.717369	Mt	-0.09143031
-5.018399	Much	-0.4028369
-5.717369	Muezzin	-0.09143031
-5.717369	Muffled	-0.09143031
-5.717369	Mufti	-0.09143031
-5.416339	Mungo	-0.2725315
-5.717369	Murray	-0.09143031
-5.717369	Museum	-0.09143031
-5.717369	Musket	-0.09143031
-5.717369	Must	-0.09143031
-5.416339	Muster	-0.2725315
-4.374947	My	-1.060698
-5.717369	Myself	-0.09143031
-5.717369	Mysteriously	-0.09143031
-5.416339	Mysticetus	-0.2725315
-5.416339	N	-0.2725315
-4.675977	NANTUCKET	-0.7781512
-5.115309	NARRATIVE	-0.5438738
-5.416339	NARWHALE	-0.2725315
-5.717369	NAT	-0.09143031
-5.717369	NATHAN	-0.09143031
-5.717369	NATURALIST	-0.09143031
-5.416339	NEST	-0.2725315
-5.717369	NESTS	-0.09143031
-5.717369	NEVER	-0.09143031
-5.416339	NEW	-0.2725315
-5.717369	NEWSPAPER	-0.09143031
-5.717369	NINE	-0.09143031
-5.115309	NO	-0.5438738
-5.717369	NOSTRIL	-0.09143031
-5.717369	NOT	-0.09143031
-5.717369	NOUN	-0.09143031
-5.717369	NUDGING	-0.09143031
-5.115309	NUEE	-0.5438738
-5.717369	Nail	-0.09143031
-5.717369	Names	-0.09143031
-3.78795	Nantucket	-1.633468
-4.374947	Nantucketer	-1.060698
-4.717369	Nantucketers	-0.7403627
-5.717369	Nantuckois	-0.09143031
-5.240248	Napoleon	-0.1567049
-5.717369	Narcissus	-0.09143031
-5.717369	Narragansett	-0.09143031
-4.939218	Narwhale	-0.5608894
-5.717369	Nat	-0.09143031
-5.717369	Nathan	-0.09143031
-5.240248	National	-0.1567049
-5.018399	Natural	-0.4028369
-4.814279	Nature	-0.6532125
-5.717369	Naught	-0.09143031
-5.717369	Navis	-0.09143031
-4.603426	Nay	-0.8450981
-5.717369	Near	-0.09143031
-5.717369	Nearly	-0.09143031
-5.717369	Needle	-0.09143031
-5.717369	Negro	-0.09143031
-5.240248	Nelson	-0.1567049
-5.717369	Nescio	-0.09143031
-5.416339	Neskyeuna	-0.2725315
-5.717369	Netherlands	-0.09143031
-4.717369	Never	-0.7403627
-4.286005	Nevertheless	-1.146128
-4.045271	New	-1.380211
-5.717369	Newcastle	-0.09143031
-5.416339	Newfoundland	-0.2725315
-4.717369	Next	-0.7403627
-5.416339	Niagara	-0.2725315
-5.717369	Nicholas	-0.09143031
-5.717369	Nick	-0.09143031
-5.717369	Niger	-0.09143031
-5.240248	Night	-0.1567049
-5.717369	Nightgown	-0.09143031
-5.416339	Nile	-0.2725315
-5.717369	Nimble	-0.09143031
-5.717369	Nimbly	-0.09143031
-4.939218	Nineveh	-0.5608894
-5.717369	Niphon	-0.09143031
-5.717369	Nippers	-0.09143031
-3.726143	No	-1.694605
-4.814279	Noah	-0.6532125
-5.717369	Nod	-0.09143031
-5.717369	None	-0.09143031
-3.836556	Nor	-1.585461
-5.717369	Norse	-0.09143031
-4.814279	North	-0.6532125
-5.115309	Northern	-0.5438738
-5.717369	Northman	-0.09143031
-5.717369	Norway	-0.09143031
-5.717369	Norwegian	-0.09143031
-5.717369	Nose	-0.09143031
-4.045271	Not	-1.380211
-4.603426	Nothing	-0.8450981
-5.416339	November	-0.2725315
-3.574354	Now	-1.845098
-5.717369	Nun	-0.09143031
-5.717369	Nut	-0.09143031
-4.270211	O	-1.161368
-5.717369	OAKES	-0.09143031
-5.717369	OAKUM	-0.09143031
-5.717369	OATHS	-0.09143031
-5.717369	OBED	-0.09143031
-5.416339	OCEAN	-0.2725315
-4.763127	OCTAVO	-0.69897
-5.717369	OCTAVOES	-0.09143031
-5.717369	OCTHER	-0.09143031
-4.027173	OF	-1.39794
-5.717369	OFF	-0.09143031
-5.717369	OFFICIO	-0.09143031
-5.717369	OH	-0.09143031
-5.240248	OLD	-0.1567049
-4.675977	ON	-0.7781512
-5.115309	ONE	-0.5438738
-5.717369	ONLY	-0.09143031
-5.717369	OPEN	-0.09143031
-5.717369	OPENING	-0.09143031
-5.018399	OR	-0.4028369
-5.416339	OTHER	-0.2725315
-5.416339	OUT	-0.2725315
-5.717369	OVER	-0.09143031
-5.717369	OWEN	-0.09143031
-5.717369	Oahu	-0.09143031
-5.240248	Oars	-0.1567049
-5.416339	Obed	-0.2725315
-5.717369	Observatory	-0.09143031
-4.814279	Ocean	-0.6532125
-5.717369	Oceanica	-0.09143031
-5.416339	Oceans	-0.2725315
-5.717369	Ochotsh	-0.09143031
-5.416339	Octavo	-0.2725315
-5.717369	October	-0.09143031
-4.337158	Of	-1.09691
-5.416339	Off	-0.2725315
-5.717369	Office	-0.09143031
-5.717369	Oft	-0.09143031
-5.115309	Often	-0.5438738
-3.641822	Oh	-1.778151
-5.240248	Ohio	-0.1567049
-5.717369	Olassen	-0.09143031
-4.675977	Old	-0.7781512
-5.717369	Olmstead	-0.09143031
-5.717369	Ombay	-0.09143031
-5.717369	Omen	-0.09143031
-4.054611	On	-1.371068
-5.018399	Once	-0.4028369
-4.270211	One	-1.161368
-4.541278	Only	-0.9030901
-5.416339	Ontario	-0.2725315
-5.717369	Ophites	-0.09143031
-5.717369	Opposite	-0.09143031
-4.675977	Or	-0.7781512
-5.717369	Ordinaire	-0.09143031
-5.416339	Oregon	-0.2725315
-5.717369	Orient	-0.09143031
-4.939218	Oriental	-0.5608894
-5.717369	Orientals	-0.09143031
-5.717369	Originally	-0.09143031
-5.717369	Orion	-0.09143031
-5.717369	Orleans	-0.09143031
-5.416339	Other	-0.2725315
-5.416339	Others	-0.2725315
-5.115309	Ottoman	-0.5438738
-4.814279	Our	-0.6532125
-4.872271	Out	-0.8257958
-5.717369	Outside	-0.09143031
-5.717369	Outward	-0.09143031
-5.018399	Over	-0.4028369
-5.416339	Overhearing	-0.2725315
-5.018399	Owen	-0.4028369
-5.416339	Owing	-0.2725315
-5.717369	Owners	-0.09143031
-5.717369	P	-0.09143031
-5.416339	PACIFIC	-0.2725315
-5.717369	PADS	-0.09143031
-5.717369	PAID	-0.09143031
-5.717369	PALEY	-0.09143031
-5.717369	PARADISE	-0.09143031
-5.717369	PARLIAMENT	-0.09143031
-5.717369	PARVO	-0.09143031
-5.416339	PASSING	-0.2725315
-5.416339	PEKEE	-0.2725315
-5.717369	PEQUOD	-0.09143031
-5.717369	PHIL	-0.09143031
-5.717369	PILGRIM	-0.09143031
-5.717369	PILOT	-0.09143031
-4.939218	PIP	-0.5608894
-5.717369	PITCHING	-0.09143031
-5.717369	PLACED	-0.09143031
-5.717369	PLENTY	-0.09143031
-5.717369	PLINY	-0.09143031
-5.717369	PLUTARCH	-0.09143031
-5.717369	POKE	-0.09143031
-5.115309	PORPOISE	-0.5438738
-5.717369	PORTUGUESE	-0.09143031
-5.717369	PREBLE	-0.09143031
-5.717369	PREFACE	-0.09143031
-5.717369	PRESIDENCY	-0.09143031
-5.717369	PRESSED	-0.09143031
-5.717369	PREVIOUS	-0.09143031
-5.717369	PRIMER	-0.09143031
-5.717369	PROFANE	-0.09143031
-5.717369	PROGRESS	-0.09143031
-5.416339	PSALMS	-0.2725315
-5.717369	PURCHAS	-0.09143031
-5.717369	PURPOSE	-0.09143031
-4.212219	Pacific	-1.217484
-5.416339	Pacifics	-0.2725315
-5.717369	Pactolus	-0.09143031
-5.717369	Paddles	-0.09143031
-5.717369	Paean	-0.09143031
-4.814279	Pagan	-0.6532125
-5.717369	Pagans	-0.09143031
-5.717369	Paint	-0.09143031
-5.717369	Painter	-0.09143031
-5.717369	Palace	-0.09143031
-5.717369	Pale	-0.09143031
-5.717369	Pampas	-0.09143031
-5.416339	Pan	-0.2725315
-5.717369	Pandects	-0.09143031
-5.717369	Pannangians	-0.09143031
-5.416339	Pantheistic	-0.2725315
-5.717369	Pantheists	-0.09143031
-5.717369	Pantheon	-0.09143031
-5.717369	Panting	-0.09143031
-5.717369	Paracelsan	-0.09143031
-5.717369	Paracelsus	-0.09143031
-5.240248	Paradise	-0.1567049
-5.717369	Parallel	-0.09143031
-5.416339	Pardon	-0.2725315
-5.717369	Paris	-0.09143031
-5.717369	Parisians	-0.09143031
-5.717369	Park	-0.09143031
-5.416339	Parliament	-0.2725315
-4.270211	Parsee	-1.161368
-5.717369	Partly	-0.09143031
-5.717369	Partners	-0.09143031
-5.717369	Pascal	-0.09143031
-5.416339	Pass	-0.2725315
-5.416339	Passage	-0.2725315
-5.717369	Passed	-0.09143031
-5.416339	Passion	-0.2725315
-5.416339	Patagonia	-0.2725315
-5.115309	Patagonian	-0.5438738
-5.717369	Patience	-0.09143031
-5.115309	Paul	-0.5438738
-5.115309	Peace	-0.5438738
-5.717369	Pedestrians	-0.09143031
-5.018399	Pedro	-0.4028369
-5.717369	Peering	-0.09143031
-5.717369	Pegu	-0.09143031
-3.848138	Peleg	-1.574031
-5.717369	Penetrating	-0.09143031
-5.115309	People	-0.5438738
-3.481841	Pequod	-1.937016
-5.416339	Perchance	-0.2725315
-4.872271	Perhaps	-0.8257958
-5.717369	Perish	-0.09143031
-5.717369	Perry	-0.09143031
-4.675977	Perseus	-0.7781512
-5.717369	Persia	-0.09143031
-4.939218	Persian	-0.5608894
-5.717369	Persians	-0.09143031
-4.462097	Perth	-0.9777237
-5.115309	Peru	-0.5438738
-5.240248	Peruvian	-0.1567049
-4.717369	Peter	-0.7403627
-5.717369	Peterson	-0.09143031
-5.717369	Petrified	-0.09143031
-5.717369	Phaedon	-0.09143031
-5.416339	Pharaoh	-0.2725315
-5.717369	Phidias	-0.09143031
-5.717369	Philip	-0.09143031
-5.717369	Philippe	-0.09143031
-5.717369	Philippine	-0.09143031
-5.717369	Philistine	-0.09143031
-5.416339	Philistines	-0.2725315
-5.717369	Philologically	-0.09143031
-5.717369	Philopater	-0.09143031
-5.717369	Phrenologist	-0.09143031
-5.416339	Physeter	-0.2725315
-5.717369	Physiognomically	-0.09143031
-5.717369	Physiognomist	-0.09143031
-5.717369	Physiognomy	-0.09143031
-5.717369	Picture	-0.09143031
-5.240248	Pictures	-0.1567049
-5.717369	Pig	-0.09143031
-5.717369	Pillar	-0.09143031
-5.416339	Pilot	-0.2725315
-5.416339	Pine	-0.2725315
-5.717369	Pines	-0.09143031
-5.717369	Pious	-0.09143031
-3.88486	Pip	-1.537819
-5.717369	Pipe	-0.09143031
-5.717369	Pippin	-0.09143031
-5.416339	Pirates	-0.2725315
-5.717369	Pirohitee	-0.09143031
-5.717369	Pisces	-0.09143031
-5.717369	Pitchpoling	-0.09143031
-5.717369	Pitferren	-0.09143031
-5.717369	Pity	-0.09143031
-5.717369	Pizarro	-0.09143031
-5.717369	Placing	-0.09143031
-5.717369	Plain	-0.09143031
-5.717369	Plains	-0.09143031
-5.717369	Planted	-0.09143031
-5.416339	Plata	-0.2725315
-5.717369	Plate	-0.09143031
-5.416339	Plato	-0.2725315
-5.416339	Platonian	-0.2725315
-5.717369	Platonic	-0.09143031
-5.717369	Platonist	-0.09143031
-5.717369	Platonists	-0.09143031
-5.717369	Please	-0.09143031
-5.717369	Plenty	-0.09143031
-4.872271	Pliny	-0.8257958
-5.416339	Plowdon	-0.2725315
-5.717369	Plum	-0.09143031
-5.717369	Plunge	-0.09143031
-5.416339	Point	-0.2725315
-5.416339	Poland	-0.2725315
-4.675977	Polar	-0.7781512
-5.240248	Pole	-0.1567049
-5.717369	Poles	-0.09143031
-5.240248	Pollard	-0.1567049
-5.717369	Polynesia	-0.09143031
-5.416339	Polynesian	-0.2725315
-5.717369	Polynesians	-0.09143031
-5.717369	Pompey	-0.09143031
-5.717369	Pontoppodan	-0.09143031
-5.717369	Pooh	-0.09143031
-4.814279	Poor	-0.6532125
-5.717369	Popayan	-0.09143031
-5.416339	Pope	-0.2725315
-4.717369	Porpoise	-0.7403627
-5.717369	Porpoises	-0.09143031
-5.717369	Port	-0.09143031
-5.416339	Ports	-0.2725315
-5.717369	Portugal	-0.09143031
-5.416339	Portuguese	-0.2725315
-5.416339	Porus	-0.2725315
-5.416339	Possession	-0.2725315
-5.717369	Possibly	-0.09143031
-4.603426	Post	-0.8450981
-5.717369	Posted	-0.09143031
-5.717369	Postscript	-0.09143031
-5.717369	Potluck	-0.09143031
-5.240248	Pots	-0.1567049
-5.717369	Pott	-0.09143031
-5.717369	Potters	-0.09143031
-5.717369	Pottowottamie	-0.09143031
-5.717369	Pottsfich	-0.09143031
-5.416339	Povelson	-0.2725315
-5.717369	Power	-0.09143031
-5.717369	Powers	-0.09143031
-5.717369	Praetorians	-0.09143031
-5.717369	Prairie	-0.09143031
-5.416339	Prairies	-0.2725315
-5.416339	Pray	-0.2725315
-5.240248	Presbyterian	-0.1567049
-5.717369	Presbyterians	-0.09143031
-4.939218	Presently	-0.5608894
-5.717369	Preserving	-0.09143031
-5.717369	Pressing	-0.09143031
-5.717369	Preternatural	-0.09143031
-5.717369	Pretty	-0.09143031
-5.717369	Prick	-0.09143031
-5.115309	Priest	-0.5438738
-5.416339	Prince	-0.2725315
-5.717369	Probably	-0.09143031
-5.717369	Proceed	-0.09143031
-5.240248	Procopius	-0.1567049
-5.717369	Prodigies	-0.09143031
-5.717369	Prodromus	-0.09143031
-5.717369	Projecting	-0.09143031
-5.115309	Prometheus	-0.5438738
-5.240248	Prophet	-0.1567049
-5.115309	Propontis	-0.5438738
-5.717369	Protestant	-0.09143031
-5.240248	Providence	-0.1567049
-5.717369	Provoke	-0.09143031
-5.416339	Prynne	-0.2725315
-5.717369	Ptolemy	-0.09143031
-5.416339	Pudding	-0.2725315
-4.675977	Pull	-0.7781512
-5.416339	Pulling	-0.2725315
-5.717369	Pulpit	-0.09143031
-5.240248	Pupella	-0.1567049
-5.416339	Purchas	-0.2725315
-5.717369	Puritanic	-0.09143031
-5.717369	Puritans	-0.09143031
-5.717369	Push	-0.09143031
-5.717369	Pushing	-0.09143031
-5.717369	Pusie	-0.09143031
-5.717369	Put	-0.09143031
-5.717369	Pyrrho	-0.09143031
-5.717369	Pythagoras	-0.09143031
-5.717369	Pythagorean	-0.09143031
-5.416339	QUARTER	-0.2725315
-5.416339	QUEEN	-0.2725315
-5.717369	QUIETLY	-0.09143031
-5.717369	QUITO	-0.09143031
-5.717369	Quadrant	-0.09143031
-4.717369	Quaker	-0.7403627
-5.416339	Quakeress	-0.2725315
-5.717369	Quakerish	-0.09143031
-5.717369	Quakerism	-0.09143031
-5.240248	Quakers	-0.1567049
-5.717369	Quarter	-0.09143031
-5.416339	Quarto	-0.2725315
-5.416339	Quebec	-0.2725315
-4.571241	Queen	-0.8750613
-3.315969	Queequeg	-2.102091
-4.763127	Quick	-0.69897
-5.416339	Quito	-0.2725315
-5.416339	Quitting	-0.2725315
-5.717369	Quog	-0.09143031
-4.763127	Quohog	-0.69897
-5.717369	Quoin	-0.09143031
-5.717369	RABELAIS	-0.09143031
-5.717369	RAIMOND	-0.09143031
-5.717369	RAPE	-0.09143031
-5.416339	RAZOR	-0.2725315
-5.240248	RECLINING	-0.1567049
-5.717369	RED	-0.09143031
-5.717369	REFERENCE	-0.09143031
-5.717369	REMAINING	-0.09143031
-5.717369	REPEATED	-0.09143031
-5.717369	REPORT	-0.09143031
-5.717369	REPUBLICA	-0.09143031
-5.717369	REQUIEM	-0.09143031
-5.717369	REQUIN	-0.09143031
-5.717369	RESPECTABLE	-0.09143031
-5.717369	REST	-0.09143031
-5.717369	RESUMING	-0.09143031
-5.717369	RETAKING	-0.09143031
-5.717369	REV	-0.09143031
-5.717369	REVELRY	-0.09143031
-5.717369	REVENGE	-0.09143031
-5.717369	RIBS	-0.09143031
-5.717369	RICHARD	-0.09143031
-5.717369	RICHARDSON	-0.09143031
-5.717369	RIGGING	-0.09143031
-5.240248	RIGHT	-0.1567049
-5.416339	RISES	-0.2725315
-5.717369	ROBERT	-0.09143031
-5.717369	ROCKS	-0.09143031
-5.717369	ROLL	-0.09143031
-5.717369	ROSE	-0.09143031
-5.717369	ROSS	-0.09143031
-5.416339	ROUND	-0.2725315
-5.717369	Rabbins	-0.09143031
-5.717369	Rabelais	-0.09143031
-4.939218	Rachel	-0.5608894
-5.115309	Rad	-0.5438738
-4.374947	Radney	-1.060698
-5.717369	Rafters	-0.09143031
-5.717369	Railroads	-0.09143031
-5.717369	Rains	-0.09143031
-5.717369	Raise	-0.09143031
-5.717369	Raising	-0.09143031
-5.240248	Ram	-0.1567049
-4.675977	Ramadan	-0.7781512
-5.416339	Ramadans	-0.2725315
-5.717369	Randolphs	-0.09143031
-5.717369	Raphael	-0.09143031
-5.717369	Rarmai	-0.09143031
-5.717369	Rat	-0.09143031
-5.115309	Rather	-0.5438738
-5.717369	Rattle	-0.09143031
-5.416339	Rattler	-0.2725315
-5.717369	Ray	-0.09143031
-5.717369	Read	-0.09143031
-5.416339	Ready	-0.2725315
-5.717369	Real	-0.09143031
-5.717369	Reality	-0.09143031
-5.416339	Receiving	-0.2725315
-5.717369	Reckon	-0.09143031
-5.416339	Reckoning	-0.2725315
-5.240248	Red	-0.1567049
-5.416339	Reference	-0.2725315
-5.717369	Regarded	-0.09143031
-5.717369	Regarding	-0.09143031
-5.717369	Regent	-0.09143031
-5.717369	Relieved	-0.09143031
-5.717369	Remark	-0.09143031
-5.416339	Remember	-0.2725315
-5.717369	Remembering	-0.09143031
-5.717369	Remote	-0.09143031
-5.416339	Removing	-0.2725315
-5.717369	Rensselaers	-0.09143031
-5.717369	Republican	-0.09143031
-5.717369	Requiem	-0.09143031
-5.717369	Respectively	-0.09143031
-5.717369	Retreating	-0.09143031
-5.717369	Retribution	-0.09143031
-5.416339	Returning	-0.2725315
-5.717369	Rev	-0.09143031
-5.717369	Revival	-0.09143031
-5.717369	Rhenish	-0.09143031
-5.717369	Rhodes	-0.09143031
-5.416339	Rhyme	-0.2725315
-5.416339	Rib	-0.2725315
-5.717369	Richard	-0.09143031
-5.416339	Ridge	-0.2725315
-5.018399	Rig	-0.4028369
-4.009799	Right	-1.414973
-5.717369	Righteousness	-0.09143031
-5.717369	Rights	-0.09143031
-5.717369	Rinaldini	-0.09143031
-5.717369	Rinaldo	-0.09143031
-5.416339	Rio	-0.2725315
-5.717369	Riotous	-0.09143031
-5.717369	Ripplingly	-0.09143031
-5.416339	Rising	-0.2725315
-5.717369	River	-0.09143031
-5.416339	Roanoke	-0.2725315
-5.717369	Roar	-0.09143031
-5.416339	Rock	-0.2725315
-5.717369	Rockaway	-0.09143031
-5.717369	Rocks	-0.09143031
-5.717369	Rocky	-0.09143031
-5.717369	Rodmond	-0.09143031
-5.717369	Rogers	-0.09143031
-5.240248	Rokovoko	-0.1567049
-5.717369	Roll	-0.09143031
-4.541278	Roman	-0.9030901
-5.240248	Romans	-0.1567049
-5.018399	Rome	-0.4028369
-5.240248	Romish	-0.1567049
-5.717369	Rondeletius	-0.09143031
-5.416339	Rope	-0.2725315
-4.814279	Rose	-0.6532125
-5.717369	Roses	-0.09143031
-5.416339	Ross	-0.2725315
-5.240248	Round	-0.1567049
-5.717369	Rousseau	-0.09143031
-5.717369	Rue	-0.09143031
-5.240248	Run	-0.1567049
-5.416339	Running	-0.2725315
-5.115309	Russian	-0.5438738
-3.918029	S	-1.50515
-5.240248	SACRED	-0.1567049
-5.717369	SAID	-0.09143031
-5.717369	SAIL	-0.09143031
-4.212219	SAILOR	-1.217484
-5.717369	SAILORS	-0.09143031
-5.416339	SAMUEL	-0.2725315
-5.717369	SAXON	-0.09143031
-5.717369	SCATTER	-0.09143031
-5.717369	SCENE	-0.09143031
-5.717369	SCHOUTEN	-0.09143031
-5.717369	SCORESBY	-0.09143031
-5.717369	SCREWS	-0.09143031
-5.416339	SCUTTLE	-0.2725315
-5.717369	SEAMS	-0.09143031
-5.717369	SEBOND	-0.09143031
-5.717369	SEEN	-0.09143031
-5.717369	SENATE	-0.09143031
-5.717369	SENTENCE	-0.09143031
-5.717369	SETH	-0.09143031
-5.717369	SHAKING	-0.09143031
-5.416339	SHALL	-0.2725315
-5.416339	SHE	-0.2725315
-5.018399	SHIP	-0.4028369
-5.717369	SHIPMATES	-0.09143031
-5.416339	SHIPWRECK	-0.2725315
-5.717369	SHOALS	-0.09143031
-5.717369	SHRINKING	-0.09143031
-5.717369	SIBBALD	-0.09143031
-5.416339	SICILIAN	-0.2725315
-5.717369	SINGING	-0.09143031
-5.416339	SINGS	-0.2725315
-5.115309	SIR	-0.5438738
-5.717369	SISTER	-0.09143031
-5.717369	SITTING	-0.09143031
-5.717369	SIXTH	-0.09143031
-5.717369	SIZED	-0.09143031
-5.717369	SKRIMSHANDER	-0.09143031
-5.717369	SKY	-0.09143031
-5.717369	SLABS	-0.09143031
-5.717369	SLEEP	-0.09143031
-5.717369	SLEEPY	-0.09143031
-5.717369	SLEET	-0.09143031
-5.416339	SLOWLY	-0.2725315
-5.717369	SMALL	-0.09143031
-5.717369	SMITH	-0.09143031
-5.717369	SMOKING	-0.09143031
-4.814279	SNEEZES	-0.6532125
-5.717369	SNEEZING	-0.09143031
-5.717369	SOCIAL	-0.09143031
-5.717369	SOLANDER	-0.09143031
-5.717369	SOLUS	-0.09143031
-5.416339	SOME	-0.2725315
-5.717369	SOMETHING	-0.09143031
-5.717369	SOMEWHERE	-0.09143031
-5.416339	SONG	-0.2725315
-5.717369	SORTS	-0.09143031
-5.717369	SOUTH	-0.09143031
-5.115309	SPANISH	-0.5438738
-5.717369	SPEECH	-0.09143031
-5.018399	SPERM	-0.4028369
-5.416339	SPERMA	-0.2725315
-5.717369	SPERMACETI	-0.09143031
-5.717369	SPITZBERGEN	-0.09143031
-5.717369	SPLICE	-0.09143031
-5.717369	SPOUTING	-0.09143031
-5.717369	SPOUTINGS	-0.09143031
-5.717369	SPRINGING	-0.09143031
-5.717369	ST	-0.09143031
-5.240248	STANDING	-0.1567049
-5.416339	STARBUCK	-0.2725315
-5.717369	STATE	-0.09143031
-5.717369	STATES	-0.09143031
-5.717369	STEP	-0.09143031
-5.717369	STEPS	-0.09143031
-5.717369	STERN	-0.09143031
-5.717369	STICK	-0.09143031
-5.717369	STOWE	-0.09143031
-5.717369	STRAFFORD	-0.09143031
-5.717369	STRAPS	-0.09143031
-5.717369	STRING	-0.09143031
-5.416339	STUBB	-0.2725315
-5.717369	SUDDEN	-0.09143031
-5.717369	SULKY	-0.09143031
-5.416339	SULPHUR	-0.2725315
-5.717369	SUMMER	-0.09143031
-5.717369	SURE	-0.09143031
-5.717369	SURVIVORS	-0.09143031
-5.717369	SWEDISH	-0.09143031
-5.115309	Sabbath	-0.5438738
-5.717369	Sachem	-0.09143031
-5.717369	Saco	-0.09143031
-4.814279	Sag	-0.6532125
-5.416339	Sagittarius	-0.2725315
-5.717369	Sahara	-0.09143031
-5.717369	Said	-0.09143031
-5.018399	Sail	-0.4028369
-5.717369	Sailing	-0.09143031
-5.717369	Sailors	-0.09143031
-5.717369	Saint	-0.09143031
-5.240248	Sal	-0.1567049
-5.717369	Saladin	-0.09143031
-5.717369	Salem	-0.09143031
-5.416339	Salisbury	-0.2725315
-5.416339	Sam	-0.2725315
-5.717369	Same	-0.09143031
-5.416339	Sammy	-0.2725315
-5.717369	Samson	-0.09143031
-4.763127	Samuel	-0.69897
-5.717369	Sands	-0.09143031
-5.416339	Sandwich	-0.2725315
-5.416339	Santa	-0.2725315
-5.416339	Saratoga	-0.2725315
-5.717369	Sartain	-0.09143031
-5.240248	Satan	-0.1567049
-5.717369	Satanic	-0.09143031
-5.018399	Saturday	-0.4028369
-5.416339	Saturn	-0.2725315
-5.717369	Saul	-0.09143031
-5.717369	Savage	-0.09143031
-5.416339	Savesoul	-0.2725315
-5.717369	Saw	-0.09143031
-5.717369	Saxon	-0.09143031
-4.872271	Say	-0.8257958
-5.416339	Says	-0.2725315
-5.717369	Scales	-0.09143031
-5.416339	Scandinavian	-0.2725315
-5.717369	Scarcely	-0.09143031
-5.717369	Scenes	-0.09143031
-5.717369	Schmerenburgh	-0.09143031
-5.717369	School	-0.09143031
-5.717369	Schoolmasters	-0.09143031
-5.717369	Schools	-0.09143031
-5.717369	Science	-0.09143031
-5.717369	Sciences	-0.09143031
-4.763127	Scoresby	-0.69897
-5.717369	Scorning	-0.09143031
-5.717369	Scorpio	-0.09143031
-5.717369	Scorpion	-0.09143031
-5.240248	Scotch	-0.1567049
-5.717369	Scotland	-0.09143031
-5.717369	Scragg	-0.09143031
-5.717369	Screwed	-0.09143031
-5.717369	Scriptural	-0.09143031
-5.717369	Scripture	-0.09143031
-5.416339	Scriptures	-0.2725315
-5.717369	Scroll	-0.09143031
-4.374947	Sea	-1.060698
-4.872271	Seas	-0.8257958
-5.416339	Season	-0.2725315
-5.717369	Seat	-0.09143031
-5.717369	Seated	-0.09143031
-4.763127	Sebastian	-0.69897
-5.018399	Second	-0.4028369
-5.240248	Secondly	-0.1567049
-5.717369	Secretary	-0.09143031
-5.717369	Securing	-0.09143031
-4.438616	See	-1
-5.717369	Seed	-0.09143031
-4.763127	Seeing	-0.69897
-5.717369	Seek	-0.09143031
-5.240248	Seems	-0.1567049
-5.240248	Seen	-0.1567049
-5.717369	Seeva	-0.09143031
-5.240248	Seizing	-0.1567049
-5.717369	Seldom	-0.09143031
-5.717369	Sell	-0.09143031
-5.717369	Semiramis	-0.09143031
-5.717369	Senators	-0.09143031
-5.416339	Send	-0.2725315
-5.717369	Seneca	-0.09143031
-5.240248	Senor	-0.1567049
-5.717369	Serious	-0.09143031
-5.717369	Sermon	-0.09143031
-5.416339	Set	-0.2725315
-5.416339	Setting	-0.2725315
-5.717369	Seven	-0.09143031
-5.717369	Several	-0.09143031
-5.717369	Seychelle	-0.09143031
-5.717369	Shadrach	-0.09143031
-5.717369	Shake	-0.09143031
-5.717369	Shaker	-0.09143031
-5.416339	Shakers	-0.2725315
-5.717369	Shakespeare	-0.09143031
-5.717369	Shaking	-0.09143031
-4.675977	Shall	-0.7781512
-5.240248	Shame	-0.1567049
-5.717369	Shan	-0.09143031
-5.240248	Shark	-0.1567049
-5.717369	Sharks	-0.09143031
-5.416339	Shaster	-0.2725315
-4.541278	She	-0.9030901
-5.717369	Sheet	-0.09143031
-5.717369	Sheffield	-0.09143031
-5.717369	Shem	-0.09143031
-5.717369	Sherry	-0.09143031
-5.416339	Shetland	-0.2725315
-5.717369	Shifting	-0.09143031
-4.939218	Ship	-0.5608894
-5.717369	Shipmate	-0.09143031
-5.018399	Shipmates	-0.4028369
-5.717369	Shipped	-0.09143031
-5.717369	Shirt	-0.09143031
-5.717369	Shiver	-0.09143031
-5.717369	Shooting	-0.09143031
-5.416339	Shore	-0.2725315
-5.717369	Short	-0.09143031
-5.416339	Should	-0.2725315
-5.717369	Shove	-0.09143031
-5.717369	Shrouded	-0.09143031
-5.717369	Shut	-0.09143031
-5.416339	Siam	-0.2725315
-5.240248	Siamese	-0.1567049
-5.416339	Sibbald	-0.2725315
-5.416339	Siberia	-0.2725315
-5.717369	Siberian	-0.09143031
-5.717369	Sicilian	-0.09143031
-5.416339	Sideways	-0.2725315
-5.717369	Signals	-0.09143031
-5.416339	Signs	-0.2725315
-5.717369	Sikoke	-0.09143031
-5.416339	Silence	-0.2725315
-5.717369	Silent	-0.09143031
-5.717369	Silently	-0.09143031
-5.717369	Silly	-0.09143031
-5.717369	Simeon	-0.09143031
-5.717369	Simoon	-0.09143031
-5.717369	Sin	-0.09143031
-5.416339	Since	-0.2725315
-5.018399	Sing	-0.4028369
-5.240248	Sink	-0.1567049
-4.270211	Sir	-1.161368
-5.717369	Sirs	-0.09143031
-5.717369	Sixteen	-0.09143031
-5.717369	Skeleton	-0.09143031
-5.717369	Skies	-0.09143031
-5.717369	Skin	-0.09143031
-5.717369	Skrimshander	-0.09143031
-5.717369	Slack	-0.09143031
-5.240248	Slave	-0.1567049
-5.717369	Sleep	-0.09143031
-5.416339	Sleeping	-0.2725315
-4.872271	Sleet	-0.8257958
-5.717369	Slid	-0.09143031
-5.717369	Slip	-0.09143031
-5.717369	Slope	-0.09143031
-5.240248	Slowly	-0.1567049
-5.416339	Small	-0.2725315
-5.717369	Smeer	-0.09143031
-5.717369	Smeerenberg	-0.09143031
-5.717369	Smells	-0.09143031
-5.717369	Smithfield	-0.09143031
-5.717369	Smuggled	-0.09143031
-5.416339	Smut	-0.2725315
-5.717369	Snap	-0.09143031
-5.717369	Snarles	-0.09143031
-5.717369	Snatch	-0.09143031
-5.717369	Snatching	-0.09143031
-5.240248	Snodhead	-0.1567049
-3.550052	So	-1.869232
-5.717369	Societies	-0.09143031
-5.115309	Society	-0.5438738
-5.717369	Socratic	-0.09143031
-5.717369	Sodom	-0.09143031
-5.717369	Softly	-0.09143031
-5.717369	Solander	-0.09143031
-5.717369	Soloma	-0.09143031
-4.814279	Solomon	-0.6532125
-4.137586	Some	-1.290035
-5.717369	Somehow	-0.09143031
-5.240248	Something	-0.1567049
-4.939218	Sometimes	-0.5608894
-5.240248	Son	-0.1567049
-5.416339	Sons	-0.2725315
-4.48692	Soon	-0.9542425
-5.717369	Soothed	-0.09143031
-5.717369	Sorrows	-0.09143031
-5.717369	Sounding	-0.09143031
-4.39515	South	-1.041393
-4.872271	Southern	-0.8257958
-5.717369	Southerner	-0.09143031
-5.416339	Sovereign	-0.2725315
-5.717369	Sow	-0.09143031
-5.018399	Spain	-0.4028369
-5.240248	Spaniard	-0.1567049
-5.416339	Spaniards	-0.2725315
-4.814279	Spanish	-0.6532125
-5.717369	Spanishly	-0.09143031
-5.018399	Speak	-0.4028369
-5.717369	Specksioneer	-0.09143031
-5.240248	Specksynder	-0.1567049
-5.717369	Spell	-0.09143031
-5.717369	Spencer	-0.09143031
-3.587035	Sperm	-1.832509
-5.717369	Sperma	-0.09143031
-5.416339	Spermaceti	-0.2725315
-5.416339	Spermacetti	-0.2725315
-5.717369	Sphinx	-0.09143031
-5.416339	Sphynx	-0.2725315
-5.717369	Spin	-0.09143031
-5.717369	Spinoza	-0.09143031
-5.240248	Spirit	-0.1567049
-5.416339	Spite	-0.2725315
-5.115309	Spitzbergen	-0.5438738
-5.717369	Splice	-0.09143031
-5.717369	Split	-0.09143031
-5.416339	Spout	-0.2725315
-4.872271	Spouter	-0.8257958
-5.717369	Spread	-0.09143031
-4.872271	Spring	-0.8257958
-5.717369	Spurn	-0.09143031
-5.717369	Spurzheim	-0.09143031
-5.416339	Squall	-0.2725315
-5.717369	Square	-0.09143031
-5.717369	Squaring	-0.09143031
-5.416339	Squeeze	-0.2725315
-5.240248	Squid	-0.1567049
-5.717369	Squire	-0.09143031
-5.416339	Squires	-0.2725315
-4.337158	St	-1.09691
-5.717369	Stab	-0.09143031
-5.717369	Stammering	-0.09143031
-4.337158	Stand	-1.09691
-4.939218	Standing	-0.5608894
-5.717369	Star	-0.09143031
-5.717369	Starboard	-0.09143031
-3.425113	Starbuck	-1.993436
-5.717369	Stars	-0.09143031
-4.939218	Start	-0.5608894
-5.717369	Started	-0.09143031
-5.240248	Starting	-0.1567049
-5.717369	Startled	-0.09143031
-5.115309	State	-0.5438738
-5.018399	States	-0.4028369
-5.115309	Steady	-0.5438738
-5.717369	Stealing	-0.09143031
-5.240248	Steed	-0.1567049
-5.717369	Steel	-0.09143031
-4.115309	Steelkilt	-1.311754
-5.240248	Steering	-0.1567049
-5.717369	Step	-0.09143031
-5.717369	Stepping	-0.09143031
-5.018399	Stern	-0.4028369
-5.416339	Steward	-0.2725315
-5.717369	Stick	-0.09143031
-5.416339	Stiggs	-0.2725315
-4.603426	Still	-0.8450981
-5.717369	Stir	-0.09143031
-5.717369	Stoic	-0.09143031
-5.717369	Stoics	-0.09143031
-5.717369	Stone	-0.09143031
-5.717369	Stood	-0.09143031
-4.814279	Stop	-0.6532125
-5.416339	Story	-0.2725315
-5.717369	Stowing	-0.09143031
-5.416339	Straightway	-0.2725315
-5.018399	Straits	-0.4028369
-5.416339	Strange	-0.2725315
-5.717369	Strangest	-0.09143031
-5.240248	Street	-0.1567049
-5.717369	Strello	-0.09143031
-5.717369	Strength	-0.09143031
-5.717369	Stretched	-0.09143031
-5.416339	Strictly	-0.2725315
-5.115309	Strike	-0.5438738
-5.717369	Striking	-0.09143031
-5.717369	Stripped	-0.09143031
-5.416339	Strong	-0.2725315
-5.416339	Struck	-0.2725315
-3.310829	Stubb	-2.10721
-5.717369	Stylites	-0.09143031
-4.872271	Sub	-0.8257958
-5.717369	Subject	-0.09143031
-5.717369	Subs	-0.09143031
-5.717369	Subtilize	-0.09143031
-4.18589	Such	-1.243038
-5.018399	Suddenly	-0.4028369
-5.717369	Sullenly	-0.09143031
-5.717369	Sulphur	-0.09143031
-5.717369	Sultan	-0.09143031
-4.939218	Sumatra	-0.5608894
-5.717369	Summer	-0.09143031
-4.939218	Sunda	-0.5608894
-4.872271	Sunday	-0.8257958
-5.717369	Sunset	-0.09143031
-5.717369	Superior	-0.09143031
-5.018399	Supper	-0.4028369
-5.416339	Supplied	-0.2725315
-5.416339	Suppose	-0.2725315
-5.717369	Supposing	-0.09143031
-5.416339	Suppression	-0.2725315
-5.717369	Supreme	-0.09143031
-5.717369	Sure	-0.09143031
-5.018399	Surely	-0.4028369
-5.416339	Surgeon	-0.2725315
-5.717369	Surmises	-0.09143031
-5.717369	Susan	-0.09143031
-5.240248	Suspended	-0.1567049
-5.717369	Sw	-0.09143031
-5.717369	Swackhammer	-0.09143031
-5.717369	Swain	-0.09143031
-5.717369	Swaine	-0.09143031
-5.717369	Swallow	-0.09143031
-5.717369	Swamp	-0.09143031
-5.717369	Sway	-0.09143031
-5.717369	Swedes	-0.09143031
-5.240248	Sweet	-0.1567049
-5.416339	Swerve	-0.2725315
-5.717369	Swim	-0.09143031
-5.717369	Swimming	-0.09143031
-5.717369	Swing	-0.09143031
-5.717369	Swiss	-0.09143031
-5.416339	Sword	-0.2725315
-5.717369	Sydney	-0.09143031
-5.717369	Sylla	-0.09143031
-5.717369	Symphony	-0.09143031
-5.717369	Syracuse	-0.09143031
-5.416339	Syren	-0.2725315
-5.240248	Syrian	-0.1567049
-5.240248	System	-0.1567049
-4.814279	T	-0.6532125
-5.416339	TABLET	-0.2725315
-5.717369	TAHITAN	-0.09143031
-5.717369	TAIL	-0.09143031
-5.717369	TAKEN	-0.09143031
-5.717369	TAKING	-0.09143031
-5.717369	TALBOT	-0.09143031
-5.416339	TALES	-0.2725315
-5.416339	TAMBOURINE	-0.2725315
-5.240248	TASHTEGO	-0.1567049
-5.717369	TEENTH	-0.09143031
-5.416339	TELL	-0.2725315
-5.717369	TEN	-0.09143031
-5.717369	TERROREM	-0.09143031
-5.717369	THAR	-0.09143031
-4.462097	THAT	-0.9777237
-3.726143	THE	-1.694605
-5.717369	THEE	-0.09143031
-5.416339	THEIR	-0.2725315
-5.240248	THEM	-0.1567049
-5.416339	THEN	-0.2725315
-5.717369	THEOLOGY	-0.09143031
-4.872271	THERE	-0.8257958
-5.717369	THESE	-0.09143031
-5.240248	THEY	-0.1567049
-4.872271	THIS	-0.8257958
-5.240248	THOMAS	-0.1567049
-5.416339	THRASHER	-0.2725315
-5.717369	THRICE	-0.09143031
-5.717369	THRUSTS	-0.09143031
-5.717369	THUS	-0.09143031
-5.717369	THY	-0.09143031
-5.717369	TIME	-0.09143031
-5.717369	TIMES	-0.09143031
-5.717369	TIT	-0.09143031
-4.39515	TO	-1.041393
-5.416339	TOLD	-0.2725315
-5.717369	TOOKE	-0.09143031
-5.717369	TOOLS	-0.09143031
-5.717369	TOP	-0.09143031
-5.717369	TRANS	-0.09143031
-5.717369	TRIUMPH	-0.09143031
-5.717369	TROIL	-0.09143031
-5.717369	TRUCKS	-0.09143031
-5.717369	TRUE	-0.09143031
-5.717369	TUBS	-0.09143031
-5.717369	TURNS	-0.09143031
-5.717369	TWICE	-0.09143031
-5.717369	TWISTED	-0.09143031
-4.939218	TWO	-0.5608894
-5.717369	TYERMAN	-0.09143031
-5.416339	Table	-0.2725315
-4.939218	Tahiti	-0.5608894
-5.240248	Tahitian	-0.1567049
-5.717369	Tahitians	-0.09143031
-5.717369	Tail	-0.09143031
-5.717369	Tails	-0.09143031
-4.438616	Take	-1
-5.416339	Taking	-0.2725315
-5.115309	Talk	-0.5438738
-5.416339	Tall	-0.2725315
-5.717369	Talus	-0.09143031
-5.717369	Tamerlane	-0.09143031
-5.717369	Tanaquil	-0.09143031
-5.416339	Tarquin	-0.2725315
-4.872271	Tarshish	-0.8257958
-5.717369	Tarsus	-0.09143031
-5.115309	Tartar	-0.5438738
-5.717369	Tartarean	-0.09143031
-5.717369	Tartarian	-0.09143031
-5.018399	Tash	-0.4028369
-3.984976	Tashtego	-1.439333
-5.717369	Tattoo	-0.09143031
-5.416339	Taurus	-0.2725315
-5.416339	Teeth	-0.2725315
-5.717369	Tekel	-0.09143031
-4.675977	Tell	-0.7781512
-5.717369	Temperance	-0.09143031
-5.717369	Tempered	-0.09143031
-4.872271	Temple	-0.8257958
-5.416339	Ten	-0.2725315
-5.416339	Teneriffe	-0.2725315
-5.717369	Tennessee	-0.09143031
-5.717369	Terra	-0.09143031
-5.717369	Terrible	-0.09143031
-5.416339	Terrors	-0.2725315
-5.115309	Tertiary	-0.5438738
-5.717369	Testament	-0.09143031
-5.416339	Texas	-0.2725315
-5.416339	Texel	-0.2725315
-5.115309	Thames	-0.5438738
-5.240248	Thank	-0.1567049
-5.717369	Thanks	-0.09143031
-3.78795	That	-1.633468
-2.930618	The	-2.486431
-5.717369	Thee	-0.09143031
-4.939218	Their	-0.5608894
-3.961494	Then	-1.462398
-3.550052	There	-1.869232
-5.240248	Thereby	-0.1567049
-4.675977	Therefore	-0.7781512
-5.717369	Therein	-0.09143031
-5.717369	Thermes	-0.09143031
-4.39515	These	-1.041393
-3.825275	They	-1.596597
-5.717369	Thine	-0.09143031
-4.675977	Think	-0.7781512
-5.240248	Thinking	-0.1567049
-5.115309	Thinks	-0.5438738
-5.115309	Third	-0.5438738
-5.717369	Thirdly	-0.09143031
-5.717369	Thirty	-0.09143031
-3.687985	This	-1.732394
-5.717369	Tho	-0.09143031
-5.717369	Thomas	-0.09143031
-5.717369	Thorkill	-0.09143031
-4.763127	Those	-0.69897
-4.126305	Thou	-1.30103
-4.027173	Though	-1.39794
-5.717369	Thought	-0.09143031
-5.717369	Thrasher	-0.09143031
-5.717369	Threading	-0.09143031
-4.814279	Three	-0.6532125
-5.717369	Throttling	-0.09143031
-4.939218	Through	-0.5608894
-5.717369	Throughout	-0.09143031
-5.717369	Throw	-0.09143031
-5.717369	Throwing	-0.09143031
-5.717369	Thrusted	-0.09143031
-5.717369	Thrusting	-0.09143031
-4.814279	Thunder	-0.6532125
-5.717369	Thundering	-0.09143031
-4.319429	Thus	-1.113943
-4.872271	Thy	-0.8257958
-5.717369	Tic	-0.09143031
-5.416339	Tied	-0.2725315
-5.717369	Tierce	-0.09143031
-5.717369	Tiger	-0.09143031
-5.416339	Tigris	-0.2725315
-5.717369	Till	-0.09143031
-4.763127	Time	-0.69897
-5.416339	Timor	-0.2725315
-4.872271	Tis	-0.8257958
-5.717369	Tisbury	-0.09143031
-5.717369	Tish	-0.09143031
-5.416339	Tistig	-0.2725315
-5.416339	Tit	-0.2725315
-5.717369	Titanic	-0.09143031
-5.717369	Titanism	-0.09143031
-5.717369	Titans	-0.09143031
-3.924978	To	-1.498311
-5.717369	Toes	-0.09143031
-5.416339	Tolland	-0.2725315
-5.240248	Tom	-0.1567049
-5.416339	Tomahawk	-0.2725315
-5.717369	Tongatobooarrs	-0.09143031
-5.717369	Too	-0.09143031
-5.416339	Top	-0.2725315
-5.416339	Tophet	-0.2725315
-5.717369	Tormentoto	-0.09143031
-5.717369	Touching	-0.09143031
-4.872271	Towards	-0.8257958
-5.115309	Tower	-0.5438738
-4.541278	Town	-0.9030901
-5.717369	Trade	-0.09143031
-5.240248	Trades	-0.1567049
-5.717369	Trafalgar	-0.09143031
-5.717369	Traitors	-0.09143031
-5.018399	Tranque	-0.4028369
-5.717369	Tranquilly	-0.09143031
-5.018399	Tranquo	-0.4028369
-5.717369	Transported	-0.09143031
-5.416339	Trap	-0.2725315
-5.717369	Trinity	-0.09143031
-5.717369	Tropic	-0.09143031
-5.717369	Tropics	-0.09143031
-4.603426	True	-0.8450981
-5.416339	Truly	-0.2725315
-5.717369	Trumpa	-0.09143031
-5.717369	Trumpet	-0.09143031
-4.939218	Truth	-0.5608894
-5.018399	Try	-0.4028369
-5.717369	Tudors	-0.09143031
-5.240248	Tuileries	-0.1567049
-5.717369	Tumble	-0.09143031
-5.717369	Tumbled	-0.09143031
-4.675977	Tun	-0.7781512
-5.717369	Tunnel	-0.09143031
-5.717369	Tunnels	-0.09143031
-5.018399	Turk	-0.4028369
-5.717369	Turkey	-0.09143031
-4.939218	Turkish	-0.5608894
-5.115309	Turks	-0.5438738
-4.872271	Turn	-0.8257958
-5.717369	Turning	-0.09143031
-5.717369	Tusked	-0.09143031
-5.717369	Tut	-0.09143031
-5.240248	Twas	-0.1567049
-5.717369	Twenty	-0.09143031
-5.416339	Twice	-0.2725315
-5.416339	Twill	-0.2725315
-5.416339	Twins	-0.2725315
-4.872271	Two	-0.8257958
-5.717369	Tying	-0.09143031
-4.872271	Typhoon	-0.8257958
-5.416339	Typhoons	-0.2725315
-5.717369	Tyre	-0.09143031
-5.416339	U	-0.2725315
-5.717369	ULLOA	-0.09143031
-5.717369	UNDER	-0.09143031
-5.717369	UNITED	-0.09143031
-5.717369	UNO	-0.09143031
-5.717369	UNPUBLISHED	-0.09143031
-5.717369	UNWINDING	-0.09143031
-5.717369	UP	-0.09143031
-5.416339	UPON	-0.2725315
-5.717369	Ultimately	-0.09143031
-5.018399	Um	-0.4028369
-5.717369	Unappalled	-0.09143031
-5.717369	Uncommonly	-0.09143031
-5.416339	Unconsciously	-0.2725315
-5.416339	Under	-0.2725315
-5.717369	Unerringly	-0.09143031
-5.717369	Unfitness	-0.09143031
-5.717369	Unhinge	-0.09143031
